417 100
， -0.31445077 0.45122358 0.09730146 0.14696853 0.21228178 -0.6823092 0.32258233 1.2092832 -0.5148359 -0.40409958 0.034860097 -0.7943988 -0.014272921 -0.073879786 0.017135818 -0.3188152 0.4426739 -0.46685928 -0.16999978 -1.3033627 0.02907734 -0.13258395 0.6047065 -0.38919076 0.30542657 -0.12120129 -0.06964039 -0.18050255 -0.5271084 -0.3146438 0.10403264 0.08177118 0.22325675 -0.7514665 -0.30388388 0.20088509 0.36669925 -0.6079826 -0.18226852 -1.0020682 0.41512316 -0.96744245 -0.42528066 0.19868201 0.3390389 -0.24099383 -0.4814177 -0.4028339 0.5953481 0.2131961 0.14720508 -0.58793044 0.18292905 0.07548327 -0.34304494 0.11072038 0.4623491 -0.25136536 -0.29574543 0.6054029 0.23337284 -0.12807277 0.023119867 -0.42185956 -0.87681895 0.528512 0.39600873 0.6053183 -0.82038397 0.7076354 -0.23556344 0.48572856 0.7620167 0.009820757 0.6087162 0.13096145 0.21949567 -0.37853393 -0.51110476 0.36598274 -0.31345764 -0.3355393 -0.22474469 0.58252466 -0.30392972 -0.49456456 0.04368666 0.33936617 0.5568119 0.32041 0.50662225 0.56838965 0.012165845 -0.20335147 1.352449 0.73456335 -0.10871573 -0.41891757 0.31175098 -0.2213201
。 -0.27371642 0.38409653 0.0828584 0.121677004 0.19477428 -0.5737727 0.26853102 1.0175809 -0.4310003 -0.3440029 0.023098512 -0.67522085 -0.015849985 -0.06201305 0.021379333 -0.25947085 0.37518752 -0.38536316 -0.13963106 -1.08838 0.020337492 -0.12064274 0.51256603 -0.33715102 0.25815952 -0.09574813 -0.06209821 -0.15311565 -0.43906683 -0.2530322 0.10340172 0.0658087 0.17761594 -0.633601 -0.24937709 0.1715576 0.30659148 -0.4999289 -0.14474325 -0.82945096 0.3675345 -0.82582027 -0.35828263 0.17057581 0.28252423 -0.19444345 -0.39194256 -0.34897244 0.49929482 0.17286809 0.1390895 -0.50916433 0.15718922 0.06588098 -0.29848084 0.10591977 0.3926224 -0.19780676 -0.24520579 0.50965226 0.18938772 -0.105287254 0.018513164 -0.35290867 -0.7315096 0.44700578 0.3423568 0.49954933 -0.6804376 0.59844726 -0.20747712 0.39266634 0.6482095 0.0236482 0.5074604 0.10391899 0.17246717 -0.32055998 -0.42273688 0.3109184 -0.27242795 -0.28081146 -0.18958521 0.47745058 -0.24955142 -0.42076796 0.033299845 0.27917382 0.47351214 0.25908417 0.42588824 0.47578743 0.008528937 -0.18026708 1.1254659 0.61539847 -0.077311166 -0.34939176 0.2516238 -0.18732703
了 -0.25262377 0.3671528 0.06707685 0.11036557 0.18611395 -0.53710586 0.25316116 0.9712047 -0.41899338 -0.31664252 0.017468808 -0.6412236 3.3673386e-05 -0.063864745 0.024155684 -0.26129803 0.35771766 -0.3672219 -0.13829668 -1.0455838 0.010931723 -0.11520652 0.4787736 -0.32229376 0.24747217 -0.09889167 -0.046503946 -0.14548407 -0.42528826 -0.24492547 0.09552155 0.059130304 0.16494511 -0.6013237 -0.25106424 0.1620568 0.2871971 -0.48041266 -0.14717108 -0.80323493 0.33750346 -0.7803987 -0.33485788 0.17035013 0.27814814 -0.18923046 -0.379984 -0.33576953 0.47151047 0.1615435 0.12712285 -0.4798413 0.14366911 0.05126372 -0.29256892 0.087864675 0.36523795 -0.20027176 -0.2410433 0.47506323 0.19388618 -0.107928365 0.02980941 -0.3315544 -0.7107601 0.4325377 0.32643792 0.48847517 -0.66447616 0.57321626 -0.19164944 0.38959834 0.6186833 0.01799824 0.48420256 0.11414965 0.1811672 -0.3003227 -0.4123289 0.30113858 -0.25063536 -0.28029203 -0.19417039 0.464163 -0.23943764 -0.40606657 0.027448907 0.26972693 0.45841596 0.25111887 0.40273765 0.4624339 0.01577976 -0.16772015 1.087612 0.5914621 -0.07296219 -0.33094198 0.25877747 -0.18963426
“ -0.22998314 0.32782027 0.06350683 0.09499749 0.16133304 -0.47620144 0.22486772 0.85084045 -0.3532196 -0.29190132 0.028921656 -0.55076367 -0.0045459163 -0.06463904 0.025309648 -0.22709918 0.316971 -0.33128527 -0.121551104 -0.8992068 0.017892364 -0.100181 0.42960057 -0.2583284 0.1967399 -0.078830265 -0.041213304 -0.12678385 -0.36081344 -0.21396995 0.07854545 0.055944405 0.14129348 -0.5269871 -0.20453392 0.15150382 0.2569461 -0.42894882 -0.13908997 -0.68561864 0.3060007 -0.67692983 -0.2823365 0.14115503 0.24859536 -0.16648218 -0.32662928 -0.2920007 0.41206333 0.13793573 0.11594091 -0.41522357 0.12173477 0.041862722 -0.2556305 0.082111284 0.31863856 -0.15961453 -0.19424215 0.41473547 0.16470425 -0.08444699 0.030156614 -0.28927776 -0.60749173 0.36053875 0.27667475 0.43108895 -0.575701 0.4833535 -0.16460939 0.329818 0.53366387 0.026208187 0.42025977 0.088964365 0.143898 -0.25760478 -0.35825577 0.26335746 -0.22776486 -0.2322976 -0.15714993 0.4058953 -0.2102871 -0.35188562 0.039606676 0.24570426 0.3919234 0.20988823 0.34601238 0.39526954 0.0017104008 -0.1454994 0.94998896 0.50769323 -0.06053478 -0.29954523 0.21588871 -0.16632195
： -0.22410594 0.31124833 0.05186356 0.09337247 0.15628271 -0.45457336 0.21815304 0.82664764 -0.3564446 -0.26737282 0.01109611 -0.53684545 -0.017455092 -0.052199278 0.011224175 -0.22406782 0.2975471 -0.31197304 -0.1036589 -0.8901978 0.015478463 -0.10391271 0.41821164 -0.25194094 0.20078963 -0.07775449 -0.04734788 -0.12421145 -0.36539015 -0.2090939 0.08563559 0.06068563 0.14658058 -0.5218957 -0.19503842 0.13349107 0.23754618 -0.40733162 -0.12663402 -0.6796761 0.2946369 -0.673422 -0.29383525 0.15031254 0.24027848 -0.17314096 -0.3191127 -0.28388658 0.4111358 0.12897757 0.11230117 -0.4023266 0.13813289 0.04541238 -0.24305138 0.07379658 0.29833803 -0.17669033 -0.19879282 0.40193382 0.16646421 -0.09336723 0.022839716 -0.28060725 -0.6023355 0.3581243 0.28300896 0.42270544 -0.5639608 0.49252656 -0.17311321 0.3324191 0.5181837 0.017361289 0.41676113 0.0977818 0.14352685 -0.24949528 -0.3368745 0.24426784 -0.22513755 -0.24174462 -0.15430412 0.39235762 -0.21200338 -0.3498466 0.038939223 0.23680097 0.37430045 0.20769942 0.34800872 0.3816018 0.009657086 -0.14315456 0.92065835 0.48853993 -0.05790056 -0.27878344 0.21452557 -0.15273717
的 -0.2622693 0.3678245 0.07265904 0.10239972 0.1695065 -0.54641175 0.26124528 0.9744544 -0.4182108 -0.33026803 0.017329587 -0.6418501 -0.016861854 -0.075194746 0.014192377 -0.26437742 0.3480536 -0.38259047 -0.13203155 -1.0445536 0.008008916 -0.11213394 0.49136037 -0.30633876 0.23227876 -0.09776508 -0.05230972 -0.16118097 -0.41801745 -0.24139756 0.09634648 0.05853634 0.16773048 -0.6091446 -0.24253047 0.17241527 0.29311922 -0.4797292 -0.14321615 -0.8065294 0.35354912 -0.79121596 -0.34229776 0.1613409 0.273626 -0.19809261 -0.38188422 -0.32647637 0.47561052 0.16169271 0.12894109 -0.48670128 0.15893458 0.0678719 -0.29430014 0.09585853 0.37699088 -0.20383175 -0.24249275 0.4729481 0.19782808 -0.105450615 0.032335475 -0.34217837 -0.70167947 0.4262377 0.32117066 0.4868185 -0.66636866 0.55821043 -0.1933434 0.39010027 0.6237332 0.021825617 0.48647663 0.114594445 0.16188367 -0.30111584 -0.40941945 0.30532584 -0.24504727 -0.27930602 -0.17999595 0.45486328 -0.24178113 -0.40967587 0.027948717 0.28708464 0.44941866 0.25418627 0.41734353 0.46595103 -0.0015185827 -0.16765611 1.0912142 0.5916676 -0.080832504 -0.3410382 0.2538007 -0.19030032
” -0.19928992 0.2929983 0.05735057 0.09241414 0.14676186 -0.44005933 0.21427184 0.79003125 -0.34236956 -0.26529443 0.023562865 -0.5184836 -0.008533936 -0.04288526 0.011056954 -0.21111879 0.29703584 -0.29877284 -0.10474396 -0.8574934 0.017192509 -0.09412249 0.4036289 -0.25017962 0.19584604 -0.074147485 -0.047490284 -0.12911433 -0.3405462 -0.20390846 0.081042595 0.06499586 0.13912207 -0.4875103 -0.20079838 0.13466585 0.22454241 -0.40307224 -0.12756343 -0.662083 0.28818306 -0.64259934 -0.26261002 0.12929669 0.22808339 -0.14896026 -0.31721842 -0.28232154 0.38479722 0.12955038 0.10240884 -0.39888114 0.113817684 0.0508273 -0.24013904 0.068271324 0.29212904 -0.16909541 -0.19557354 0.38296142 0.15386148 -0.08789695 0.026315648 -0.26818925 -0.57818824 0.34984434 0.254485 0.3920373 -0.54513997 0.45865843 -0.16146562 0.32042786 0.49709734 0.017534515 0.4035692 0.07871039 0.1443564 -0.24235934 -0.33466598 0.2514313 -0.20228596 -0.23030455 -0.1583531 0.3823641 -0.19620101 -0.3330641 0.038644634 0.22149207 0.36094028 0.20467469 0.32621032 0.37070745 -0.0012465959 -0.13254787 0.87992585 0.4765246 -0.053523082 -0.27847695 0.20248793 -0.14467336
道 -0.16539314 0.24323608 0.057508398 0.08529683 0.11763433 -0.3676981 0.17860436 0.6554906 -0.28740776 -0.22778335 0.014187075 -0.4343374 -0.002838666 -0.047686454 0.01231988 -0.17216268 0.24454297 -0.25506115 -0.09501023 -0.7175957 0.012911758 -0.06946222 0.32990626 -0.21838476 0.15465397 -0.05708891 -0.041733056 -0.09670244 -0.29213864 -0.15976514 0.054523885 0.049518578 0.11581446 -0.41688955 -0.16608809 0.10940324 0.18638204 -0.33038652 -0.10814523 -0.5417823 0.24398665 -0.5350524 -0.22780816 0.1163927 0.19617912 -0.13876203 -0.26539797 -0.22964333 0.33437195 0.11212533 0.077461526 -0.32655793 0.11181817 0.03235437 -0.19906579 0.07420017 0.23751397 -0.12884857 -0.15660146 0.3340668 0.13583198 -0.07324662 0.012215782 -0.21632466 -0.477522 0.29335332 0.20799859 0.34128353 -0.44928694 0.3793041 -0.13009568 0.2610668 0.42251214 0.008570508 0.32641494 0.07504308 0.12615375 -0.21270542 -0.27364787 0.19604906 -0.18072467 -0.18681921 -0.13444935 0.31850812 -0.16117181 -0.27570182 0.02984033 0.19819416 0.3151056 0.16959776 0.27682492 0.30530953 -0.0057910993 -0.10418559 0.733605 0.39701387 -0.053839024 -0.23255304 0.17433889 -0.12866433
是 -0.23236778 0.32894835 0.06785759 0.10723872 0.16420132 -0.4735155 0.23465465 0.84489447 -0.36762834 -0.2783169 0.022813775 -0.56501895 0.001977044 -0.06044574 0.025156988 -0.22341673 0.30300245 -0.3317177 -0.121209875 -0.9154607 0.01638027 -0.08803542 0.43273902 -0.28069025 0.21268275 -0.08025797 -0.050400488 -0.14167413 -0.36587027 -0.22624554 0.08633098 0.05345448 0.15649822 -0.51562786 -0.21190965 0.14775345 0.24919501 -0.4177616 -0.12613577 -0.71271884 0.2984676 -0.682161 -0.29332426 0.14263304 0.23993401 -0.17166466 -0.33340487 -0.28793797 0.41363576 0.13835905 0.10993265 -0.41828778 0.13215959 0.048404362 -0.24501203 0.08029283 0.32261482 -0.17147122 -0.19937304 0.41304973 0.1602265 -0.09500301 0.029298875 -0.2932693 -0.6263462 0.3698253 0.27557012 0.43050778 -0.58584905 0.5000903 -0.18136701 0.33773878 0.544663 0.021817122 0.4196571 0.08642382 0.14357904 -0.27477843 -0.367985 0.26116216 -0.22200061 -0.2465879 -0.15558332 0.4075746 -0.20472734 -0.3499963 0.029481014 0.23578134 0.3926115 0.22413327 0.3521314 0.40221316 0.008346248 -0.14471315 0.9572071 0.5219482 -0.06537138 -0.28397036 0.22560278 -0.16645013
他 -0.22830282 0.31450883 0.05763033 0.10640229 0.15507765 -0.4874579 0.22109665 0.8594738 -0.3645755 -0.28963098 0.02080791 -0.56517655 -0.009392545 -0.055842225 0.011338325 -0.2157677 0.31478873 -0.3421258 -0.10770232 -0.92483616 0.015366469 -0.093440816 0.41926888 -0.2790394 0.21987756 -0.087047465 -0.0558151 -0.12391562 -0.37184253 -0.22400737 0.08733272 0.063578926 0.15494677 -0.519133 -0.22164647 0.1489465 0.25451854 -0.42307296 -0.12786546 -0.70399654 0.30631927 -0.6833278 -0.29866824 0.13981186 0.24135616 -0.16845529 -0.33940244 -0.28705403 0.42338982 0.15159728 0.11305985 -0.4108246 0.13262697 0.060213108 -0.24571246 0.074073575 0.31922644 -0.17528112 -0.20208903 0.4216791 0.16345246 -0.0844703 0.02883759 -0.295255 -0.6254767 0.3674128 0.27654845 0.41540226 -0.57791233 0.4947297 -0.16888529 0.34374553 0.5373958 0.0047632596 0.43048677 0.0867247 0.15366329 -0.27261218 -0.3540948 0.26668215 -0.2173422 -0.24266656 -0.16463837 0.41546917 -0.21004997 -0.35799164 0.019955026 0.2445423 0.4038283 0.2282997 0.349088 0.41193974 0.010453858 -0.1372076 0.9610982 0.50978976 -0.08067373 -0.2872323 0.23046282 -0.15788914
杨铁心 -0.18917122 0.2793121 0.06555702 0.07709161 0.13000245 -0.4254108 0.19402029 0.75147444 -0.3218392 -0.25770158 0.024744902 -0.49779364 0.003533549 -0.055226997 0.016484424 -0.19307597 0.2751936 -0.29341832 -0.09814223 -0.8116341 0.011810474 -0.08960009 0.37955672 -0.24445593 0.17881316 -0.06818404 -0.04317049 -0.11969367 -0.3168167 -0.18857448 0.065616526 0.053839765 0.14162965 -0.4550506 -0.17923142 0.13040836 0.22400923 -0.37631083 -0.12104536 -0.62051004 0.26374584 -0.60523003 -0.26421702 0.13510019 0.2046865 -0.15708312 -0.2965288 -0.25885937 0.36130458 0.12647976 0.09315082 -0.36972004 0.10947711 0.048833933 -0.21689548 0.07279047 0.27678412 -0.15259422 -0.17456044 0.37392482 0.1376455 -0.08281898 0.019880641 -0.25492218 -0.5533344 0.33092487 0.23697922 0.36616877 -0.50452405 0.43485054 -0.14728007 0.30634457 0.47161928 0.022746775 0.37784854 0.09203392 0.13739032 -0.2445306 -0.3187826 0.2403056 -0.19049484 -0.20184034 -0.13703859 0.3662489 -0.19670588 -0.30545506 0.020067347 0.21704262 0.3535839 0.19928993 0.32197747 0.3555844 0.004050009 -0.12067399 0.8288264 0.45180228 -0.051320307 -0.26206124 0.19721851 -0.14979826
在 -0.21315223 0.32932553 0.06597711 0.10371492 0.15869354 -0.4868024 0.22471312 0.86090434 -0.3676355 -0.2892158 0.023583297 -0.56044316 -0.01001671 -0.05930769 0.0207403 -0.2309622 0.3076982 -0.33919242 -0.11877602 -0.9278442 0.011773075 -0.10650577 0.42639527 -0.28517675 0.20215113 -0.0910408 -0.055746466 -0.12681337 -0.3662451 -0.2195753 0.077185445 0.051670752 0.15269318 -0.5287836 -0.2129263 0.14473207 0.25455368 -0.42707428 -0.13858292 -0.7155751 0.29348016 -0.6916093 -0.29366952 0.15214771 0.23904967 -0.17354804 -0.32701868 -0.29304683 0.41790354 0.15301792 0.11364142 -0.4262817 0.13993521 0.057244185 -0.25688726 0.082098395 0.3244001 -0.16729046 -0.20984627 0.42023414 0.16858862 -0.08991877 0.020251244 -0.29661673 -0.6275582 0.38119358 0.28941587 0.434427 -0.58903545 0.503463 -0.17601575 0.34901324 0.54525906 0.018914849 0.43247628 0.099732175 0.14474803 -0.260553 -0.3632414 0.2616219 -0.22381109 -0.23062642 -0.17123905 0.40744635 -0.20497355 -0.3522552 0.021724155 0.23790999 0.40655947 0.22833465 0.36409587 0.4006716 -0.0034206123 -0.14061886 0.95978206 0.5121589 -0.078550965 -0.29638493 0.2165635 -0.16331646
？ -0.19664086 0.27366227 0.06409495 0.07605915 0.14141542 -0.4091822 0.19215336 0.7500401 -0.3046932 -0.254786 0.009805307 -0.492736 -0.01682089 -0.051989842 0.009456933 -0.20469749 0.26995355 -0.28308746 -0.09198333 -0.7975922 0.009322771 -0.083536275 0.36890805 -0.22800201 0.18287325 -0.063726135 -0.051208787 -0.10715597 -0.32065204 -0.17873363 0.061171703 0.053324033 0.13182108 -0.4589746 -0.18871015 0.11589361 0.20977966 -0.37662026 -0.111011975 -0.608434 0.26114506 -0.58867115 -0.25562167 0.12378275 0.20157161 -0.1586731 -0.27964044 -0.25989607 0.35607198 0.12873001 0.10376658 -0.3705588 0.11533755 0.03798759 -0.21483897 0.0680974 0.27333853 -0.14698723 -0.16729994 0.37290248 0.13419545 -0.08362579 0.026293768 -0.24987419 -0.54038125 0.3210671 0.25414753 0.369048 -0.5111855 0.43336725 -0.14236721 0.2984901 0.47150415 0.0070357523 0.37001038 0.0810133 0.13582806 -0.23984903 -0.3183232 0.22860137 -0.2021548 -0.20293872 -0.14198098 0.36390254 -0.18713975 -0.30515283 0.03489515 0.20634712 0.3384454 0.19269234 0.312094 0.34383893 0.00977331 -0.13199572 0.82486707 0.44588223 -0.04977676 -0.24841361 0.19793902 -0.1317671
包惜弱 -0.19116737 0.27071095 0.04403751 0.07787359 0.12298864 -0.39469647 0.1742801 0.6857793 -0.29876184 -0.23280062 0.009658812 -0.44977582 -0.016143674 -0.050416358 0.022773117 -0.17653905 0.26009217 -0.26492056 -0.09250466 -0.7512373 0.019817581 -0.07648279 0.35268492 -0.21648571 0.17974274 -0.058049206 -0.05108558 -0.114774115 -0.29826108 -0.17142722 0.07279778 0.053241868 0.1317217 -0.43467113 -0.1668508 0.11363291 0.19565387 -0.33595747 -0.10497371 -0.57626086 0.24222483 -0.5632446 -0.23407912 0.12107714 0.19382247 -0.14661352 -0.27610072 -0.2372816 0.34673664 0.11408498 0.09051007 -0.3402164 0.099877164 0.044406738 -0.20427088 0.070228785 0.2659783 -0.14152865 -0.1712885 0.35060233 0.14043616 -0.06680764 0.02053381 -0.22806337 -0.49627918 0.30137196 0.23770289 0.35068065 -0.4652983 0.40478778 -0.14194356 0.27009976 0.43010625 0.014112352 0.3575789 0.08423553 0.12044297 -0.21080893 -0.28763723 0.21101959 -0.1789316 -0.20069236 -0.12482724 0.3373464 -0.1683755 -0.281391 0.03246257 0.20596105 0.3217719 0.1720195 0.30104476 0.33399498 0.0057101054 -0.117864385 0.76589143 0.41512805 -0.047673576 -0.24085528 0.17211922 -0.12078196
那 -0.21025477 0.32432166 0.06506899 0.0882611 0.16166721 -0.4741962 0.22579505 0.83983856 -0.3450509 -0.2888977 0.028564665 -0.5589759 -0.014863407 -0.06440496 0.009232113 -0.21321733 0.31304115 -0.3282333 -0.10838651 -0.9012818 0.02479774 -0.08927281 0.41557145 -0.2732633 0.19981577 -0.07560429 -0.04683914 -0.1334665 -0.35366604 -0.21870476 0.06874253 0.055145204 0.14963052 -0.52516764 -0.21507539 0.13277133 0.25722602 -0.40962338 -0.1287689 -0.68689615 0.304221 -0.6767152 -0.28204426 0.14571275 0.24150589 -0.16033202 -0.33347258 -0.28970638 0.41151282 0.1465433 0.1122657 -0.40730342 0.13405773 0.04261899 -0.24810567 0.07397713 0.3262242 -0.16408965 -0.20349887 0.41848066 0.15488833 -0.0954184 0.022355914 -0.28085238 -0.6051907 0.37187177 0.27482483 0.41417912 -0.5689518 0.4874312 -0.17441691 0.32444176 0.53757226 0.012463028 0.41952392 0.08423851 0.15711641 -0.26211435 -0.35112807 0.2633189 -0.22579011 -0.23352094 -0.15814184 0.3928294 -0.20244107 -0.34259048 0.03592722 0.24542665 0.38632986 0.20949069 0.35875404 0.39633185 0.009452685 -0.13522385 0.93458754 0.50088084 -0.068933114 -0.27891794 0.20982642 -0.14914355
我 -0.17903881 0.25202683 0.050792426 0.0833106 0.11564905 -0.3723819 0.16664737 0.65991044 -0.28459024 -0.21110053 0.008933677 -0.4399769 -0.012073066 -0.03550932 0.005640097 -0.17919831 0.23122472 -0.24798733 -0.08377909 -0.7010696 0.008694642 -0.06927585 0.31946507 -0.21201326 0.15610132 -0.0645838 -0.039574057 -0.09501779 -0.28358477 -0.17548233 0.05658456 0.03835165 0.118937 -0.3977568 -0.16949871 0.12021096 0.20098446 -0.3338853 -0.108815216 -0.53363264 0.24062242 -0.533705 -0.23234916 0.11956971 0.19064543 -0.123032466 -0.26497453 -0.23587002 0.3237962 0.09949659 0.08059645 -0.32477605 0.11156316 0.047351137 -0.19505411 0.070113294 0.25389153 -0.13563775 -0.14822721 0.3322127 0.13037664 -0.0743168 0.009871442 -0.22665337 -0.46726155 0.27905372 0.21306264 0.33667052 -0.44100764 0.3898562 -0.14066976 0.25858942 0.41948822 0.005952876 0.3383783 0.08060996 0.11519538 -0.20832759 -0.27538055 0.19757137 -0.17861317 -0.18751234 -0.12783638 0.3183161 -0.16843294 -0.26576436 0.01654414 0.17864037 0.3146911 0.17904189 0.27141336 0.31131682 -0.0020873158 -0.11990091 0.72317535 0.40241227 -0.047075506 -0.21550284 0.17721388 -0.11730557
又 -0.18353127 0.2553501 0.05839364 0.08071034 0.13652875 -0.39483768 0.18251534 0.71405935 -0.29735002 -0.23466687 0.010811191 -0.47252688 -0.014967726 -0.038247008 0.0041300766 -0.17689368 0.24778172 -0.27440932 -0.09608277 -0.76705974 0.020645399 -0.07368898 0.35380688 -0.22398748 0.17467551 -0.059453543 -0.03304362 -0.12069928 -0.30979145 -0.18198054 0.06850733 0.04413987 0.12619239 -0.44492036 -0.17326657 0.12267206 0.21345755 -0.35589623 -0.11587427 -0.59392935 0.24901997 -0.5775717 -0.25051606 0.12563841 0.20652133 -0.13924834 -0.28502315 -0.24826673 0.35450155 0.123187885 0.085925214 -0.35460165 0.11044901 0.046833314 -0.20454717 0.07067766 0.26157558 -0.15302089 -0.17743997 0.349799 0.14289172 -0.07009833 0.017804207 -0.23632944 -0.51210433 0.31194913 0.22387195 0.3596294 -0.4727278 0.41796142 -0.13472259 0.28802454 0.4484187 0.009584013 0.35580063 0.06758293 0.1331474 -0.22856009 -0.2894775 0.21479739 -0.18186018 -0.20808235 -0.14445807 0.32982486 -0.18232706 -0.29075846 0.01569216 0.19598891 0.32208332 0.17861645 0.3031772 0.33719686 0.013697043 -0.112431325 0.7797763 0.4342808 -0.067066774 -0.24417803 0.17480558 -0.12992686
得 -0.20612685 0.3069279 0.063306354 0.08464439 0.15477936 -0.45344198 0.21932021 0.79914963 -0.34060672 -0.27028424 0.013197814 -0.53044593 0.0019459488 -0.055905275 0.02154318 -0.21999025 0.2915644 -0.31125596 -0.09882494 -0.8637505 0.021864938 -0.096266724 0.38984424 -0.2631683 0.19395247 -0.08077976 -0.048440367 -0.13269274 -0.34329355 -0.20504756 0.072229 0.05911984 0.13404115 -0.4958674 -0.194155 0.14280039 0.22538191 -0.39021465 -0.116577744 -0.6645381 0.29071558 -0.652044 -0.26680678 0.13951495 0.22585456 -0.16507475 -0.31746525 -0.2767156 0.39279956 0.13620877 0.11091608 -0.38218355 0.13322404 0.04466892 -0.22352418 0.07630429 0.30594552 -0.15783894 -0.19335331 0.39770567 0.15087022 -0.09093198 0.010223259 -0.27130267 -0.57077914 0.3477185 0.26374304 0.3999724 -0.5320582 0.4572845 -0.15801573 0.3075319 0.5088651 0.022766137 0.40815035 0.09287814 0.14903879 -0.24400635 -0.3293815 0.25674617 -0.21143864 -0.21456164 -0.14790145 0.37858784 -0.1889293 -0.3234777 0.036462452 0.23005886 0.37929064 0.20756947 0.34390992 0.3801238 0.012036262 -0.1381506 0.8937507 0.48905757 -0.06738419 -0.27426606 0.20895424 -0.15787545
也 -0.18944483 0.2769955 0.05144412 0.090408646 0.14758562 -0.43416876 0.20380394 0.77216816 -0.33020982 -0.26097944 0.011201392 -0.5061801 -0.0049510757 -0.040219855 0.020730413 -0.20123386 0.2802126 -0.28811702 -0.09309036 -0.81375855 0.020149875 -0.09488265 0.37572092 -0.25315595 0.19467942 -0.07610173 -0.053158436 -0.111694165 -0.32130253 -0.19893444 0.0809629 0.052140426 0.13169247 -0.47158617 -0.19107851 0.12629792 0.22906205 -0.37556133 -0.11015971 -0.641629 0.26828003 -0.6216485 -0.2555158 0.13522956 0.21200997 -0.15017141 -0.30634826 -0.2619125 0.3846289 0.12512568 0.09434741 -0.38367078 0.11577443 0.04646497 -0.21949615 0.08373649 0.2849419 -0.15283561 -0.17586759 0.3782116 0.15015718 -0.07093387 0.026873374 -0.25390708 -0.5600399 0.3437043 0.25721064 0.38915944 -0.5202752 0.45064694 -0.14775172 0.29880947 0.4907353 0.014813042 0.39293823 0.080146596 0.13174579 -0.23348655 -0.33182654 0.22979252 -0.20534535 -0.21504022 -0.1490557 0.37308824 -0.18032236 -0.31544814 0.026774067 0.22072314 0.35295323 0.18894087 0.32869908 0.35642436 0.009087001 -0.11897099 0.85276836 0.4643481 -0.057786223 -0.26314926 0.20104899 -0.14446566
你 -0.18408749 0.27731946 0.05565602 0.088932246 0.1239116 -0.39645782 0.20044366 0.7167506 -0.30493486 -0.24593575 0.017070448 -0.47147352 0.0018568339 -0.047639348 0.015028196 -0.1899458 0.27111033 -0.2853443 -0.10219754 -0.7771208 0.010674472 -0.078148365 0.34967035 -0.23319986 0.17028669 -0.064899124 -0.043872647 -0.122374974 -0.3073627 -0.17548843 0.063342705 0.045048792 0.13007161 -0.44733986 -0.18979563 0.13057137 0.20493819 -0.36574998 -0.11258335 -0.6017391 0.25757924 -0.57181233 -0.24317683 0.13001277 0.20412342 -0.14409289 -0.2852478 -0.25668797 0.35791638 0.122381926 0.08551365 -0.3598733 0.10220804 0.03816886 -0.20845826 0.07884631 0.2756605 -0.14286467 -0.16503324 0.35642973 0.13840975 -0.08572133 0.016849801 -0.24939753 -0.5222332 0.32077497 0.23039922 0.3562804 -0.49553585 0.41753128 -0.14941779 0.2877292 0.45914397 0.007073159 0.35771835 0.07944079 0.1320389 -0.22114727 -0.3059711 0.21977378 -0.19391333 -0.20411417 -0.13524356 0.3468753 -0.17069778 -0.3004263 0.02533181 0.2000758 0.33428115 0.17899336 0.30123562 0.34066865 -0.005420205 -0.113393106 0.79366374 0.42536044 -0.066965245 -0.24058352 0.19228773 -0.1263162
去 -0.1919426 0.28095806 0.052955583 0.09524226 0.13979997 -0.4147682 0.19505772 0.7451928 -0.3087756 -0.24895363 0.019708391 -0.48989075 -0.001633691 -0.045137677 0.016747566 -0.20202845 0.2664002 -0.285295 -0.10523502 -0.8006149 0.01406619 -0.08126298 0.36223772 -0.23182969 0.18276949 -0.07696416 -0.038735464 -0.11847268 -0.33010915 -0.19567892 0.06933462 0.042176783 0.13310495 -0.45825094 -0.18901849 0.12845239 0.22299165 -0.36154738 -0.1126372 -0.61484873 0.26705128 -0.60346144 -0.26586458 0.133781 0.20902021 -0.1584558 -0.2994881 -0.25961283 0.36962593 0.13032779 0.102950156 -0.37397003 0.116374955 0.043162152 -0.22278082 0.07940474 0.285228 -0.15368667 -0.1885823 0.3633521 0.14508115 -0.07096996 0.022738874 -0.2639257 -0.55025804 0.33234635 0.2431583 0.36766526 -0.4997177 0.43074888 -0.14568418 0.2948032 0.46531782 0.011679798 0.38066986 0.09097886 0.13340509 -0.22904809 -0.31918225 0.23062386 -0.19891466 -0.20856069 -0.14556596 0.3536176 -0.19142038 -0.29741862 0.027766371 0.21051408 0.3424531 0.19990078 0.3066796 0.35457903 0.005221131 -0.11702309 0.83651567 0.44755182 -0.057731055 -0.2571397 0.18302394 -0.14367272
不 -0.19270435 0.2860359 0.065073974 0.094920285 0.12847203 -0.40935162 0.18987972 0.7403044 -0.31404266 -0.24042681 0.020923967 -0.4828184 0.0026689547 -0.04875368 0.007077252 -0.20236003 0.27722296 -0.2925908 -0.10147004 -0.79179186 0.0115119945 -0.091344655 0.3657984 -0.23764554 0.18650694 -0.06556361 -0.047849458 -0.11316947 -0.31326252 -0.1876882 0.07463931 0.046572976 0.13759115 -0.46725854 -0.1810414 0.11505064 0.2158343 -0.379323 -0.114931494 -0.61964476 0.2580647 -0.5971199 -0.2526531 0.12356232 0.20096466 -0.15502287 -0.2909487 -0.25886494 0.3550813 0.12386393 0.103173256 -0.35901818 0.10526399 0.048244957 -0.22320731 0.062352784 0.27945173 -0.15029772 -0.18640825 0.36061165 0.14198105 -0.07196496 0.009598542 -0.24637997 -0.53861666 0.32470703 0.25425762 0.3745596 -0.506968 0.43744603 -0.14590555 0.3006205 0.46930948 0.0077164555 0.3740322 0.07465149 0.1321339 -0.22817728 -0.30729976 0.23987466 -0.2006147 -0.21388265 -0.13510846 0.35614747 -0.18984786 -0.3057474 0.027871143 0.20857646 0.33937034 0.1975438 0.3210377 0.341972 0.0042605605 -0.12757258 0.81934017 0.44703963 -0.065492 -0.2446697 0.1853646 -0.13646503
！ -0.17578104 0.25530565 0.05236583 0.08721265 0.124164805 -0.37898192 0.1750021 0.66936964 -0.28763488 -0.23098134 0.00933224 -0.44729692 0.000116540505 -0.040882036 0.0210336 -0.1705178 0.23748007 -0.25606573 -0.0810357 -0.7161348 0.015900064 -0.07149639 0.32323763 -0.20490102 0.1729276 -0.05618003 -0.046625774 -0.09796163 -0.28203124 -0.17343143 0.05545541 0.053260718 0.110813126 -0.4194003 -0.16244543 0.119768694 0.20595333 -0.33892325 -0.1111982 -0.542875 0.24378833 -0.5436381 -0.23847191 0.109260365 0.18488476 -0.13772844 -0.2608457 -0.22966962 0.32617617 0.10691165 0.09723615 -0.33422366 0.09678505 0.04934693 -0.19361402 0.073589 0.24750756 -0.14147078 -0.15914595 0.33058318 0.12062841 -0.07229688 0.01871232 -0.22257191 -0.47888556 0.29383364 0.21607171 0.3324372 -0.45757255 0.39684308 -0.14084314 0.26687515 0.42224562 0.0052287146 0.3279387 0.078990534 0.11019505 -0.21118262 -0.278379 0.2158369 -0.18266767 -0.18492113 -0.118104875 0.31312436 -0.16926788 -0.271366 0.028518558 0.19227977 0.3191827 0.17451 0.2813706 0.31316558 -0.0045486847 -0.109497 0.7474131 0.39496887 -0.05498227 -0.23045342 0.17343795 -0.11776259
来 -0.20488754 0.2849001 0.06706655 0.081797935 0.1327525 -0.43708682 0.19568455 0.7737736 -0.32562685 -0.26033258 0.0103870705 -0.5092907 -0.008108325 -0.047240276 0.02168663 -0.1976206 0.28984377 -0.31017542 -0.09399158 -0.83253753 0.023087317 -0.08624552 0.3875494 -0.25987694 0.18187787 -0.06536595 -0.04802937 -0.118903644 -0.32786974 -0.19885723 0.08183603 0.052636355 0.12772632 -0.4851657 -0.19453067 0.12207911 0.2368318 -0.38162252 -0.12652901 -0.63290405 0.28239888 -0.6177646 -0.25976717 0.120552585 0.21864986 -0.16350408 -0.30754775 -0.26472172 0.37960714 0.13207537 0.10373586 -0.3787448 0.12535131 0.0554645 -0.23170042 0.08238521 0.29820067 -0.1471841 -0.18414196 0.37920466 0.14736374 -0.08269146 0.015708746 -0.25546902 -0.5601021 0.3415886 0.25786668 0.37547013 -0.51787865 0.46096194 -0.15788668 0.30853647 0.48328406 0.005583281 0.39743292 0.08132251 0.14218238 -0.24146461 -0.32795647 0.2438299 -0.2039329 -0.21954007 -0.14693582 0.3752225 -0.19313176 -0.31775534 0.017781958 0.23128651 0.34991246 0.2070864 0.32922533 0.35802728 -0.00050625496 -0.13813648 0.8554051 0.47417906 -0.054300543 -0.26235285 0.19975394 -0.13712102
郭啸天 -0.15112385 0.20878862 0.044857875 0.058254693 0.09291677 -0.32192916 0.15626708 0.5629146 -0.24235308 -0.19488984 0.013555226 -0.36344948 -0.006593359 -0.035890125 0.0057875672 -0.14297004 0.20452857 -0.20741579 -0.08508746 -0.6039825 0.0012325331 -0.064628325 0.26891443 -0.17388104 0.13152698 -0.059758466 -0.026724037 -0.09525534 -0.23921058 -0.149286 0.061922338 0.047974676 0.0999084 -0.34027565 -0.13340728 0.08710231 0.17368864 -0.28813866 -0.07724212 -0.4585316 0.19471097 -0.45391738 -0.18223755 0.08943663 0.16600172 -0.11846262 -0.20947938 -0.19232902 0.2824055 0.09010568 0.07881827 -0.26522416 0.08933362 0.03521345 -0.15834236 0.06245632 0.21796072 -0.103644006 -0.1267204 0.2843124 0.11772512 -0.058984283 0.012062363 -0.18895708 -0.40444508 0.24322574 0.17498773 0.26860756 -0.38058716 0.33460096 -0.11612003 0.2137084 0.3582023 0.010514498 0.28129894 0.06441662 0.102003105 -0.16948034 -0.23217994 0.17402644 -0.13654853 -0.1551677 -0.11142431 0.27301282 -0.13259313 -0.22806081 0.015872478 0.16238807 0.26599428 0.15236224 0.23380877 0.25378332 0.0033535913 -0.094456874 0.62430304 0.3265623 -0.03537805 -0.1984972 0.15046881 -0.11517271
人 -0.16605523 0.2607695 0.053198855 0.073385075 0.12298979 -0.3782641 0.17059241 0.67964745 -0.28306416 -0.22097668 0.008064766 -0.4347206 -0.00638238 -0.04504019 0.002467626 -0.17346784 0.25214362 -0.25441405 -0.09711622 -0.7326759 0.0061719907 -0.07750411 0.32645455 -0.2259811 0.16495796 -0.06441054 -0.048352025 -0.109514385 -0.2913843 -0.16609606 0.064906865 0.045455523 0.11263655 -0.4242274 -0.17000648 0.12207133 0.20553753 -0.33714673 -0.10208184 -0.56884664 0.23645115 -0.54896253 -0.22714508 0.11102514 0.18540123 -0.14458355 -0.26635835 -0.23873895 0.32934272 0.10997073 0.08464782 -0.33451918 0.09660744 0.04013919 -0.19466695 0.060362216 0.24733438 -0.14105387 -0.17369838 0.33265364 0.13726017 -0.07532479 0.018127471 -0.2265051 -0.48171464 0.30046797 0.23174487 0.32586938 -0.4664693 0.3878987 -0.14298202 0.2593812 0.41947037 0.0077202995 0.3403247 0.07127141 0.11006531 -0.2062892 -0.28423852 0.21372835 -0.16684106 -0.18150221 -0.13053572 0.32709673 -0.1721008 -0.27469033 0.026351871 0.20277181 0.3092563 0.17769186 0.27687493 0.31456 0.0129520055 -0.11743554 0.74790394 0.3985182 -0.06565004 -0.22105718 0.1677317 -0.12209569
她 -0.18667766 0.25558373 0.044837926 0.08681782 0.13242544 -0.38216648 0.18909587 0.6866249 -0.3002695 -0.21983074 0.010156494 -0.44437355 -0.00030565227 -0.04540126 0.0052754404 -0.18299569 0.25680336 -0.27551857 -0.09166879 -0.7479637 0.022432014 -0.08095493 0.3522016 -0.22955157 0.16030058 -0.07532169 -0.044376053 -0.10172781 -0.29720104 -0.16771133 0.067613125 0.050574474 0.12641262 -0.41615915 -0.17514014 0.12409438 0.195351 -0.3396572 -0.10606134 -0.5691302 0.24922442 -0.5574204 -0.23984556 0.11522496 0.19436969 -0.14097317 -0.26401427 -0.24195075 0.34600735 0.117660165 0.09187162 -0.33545738 0.10546773 0.044895243 -0.20453769 0.07219989 0.26076272 -0.14290419 -0.1775602 0.32991332 0.13464583 -0.07844749 0.014831881 -0.2407708 -0.50955653 0.30246568 0.23296334 0.34104192 -0.47521278 0.4077674 -0.13921367 0.2674307 0.43557182 0.009682811 0.3429868 0.06475367 0.12904246 -0.2120894 -0.2940854 0.22131447 -0.17829412 -0.18578349 -0.13459978 0.33864433 -0.17058039 -0.2894436 0.017053569 0.2076829 0.32121187 0.17933008 0.29921278 0.31891015 0.0030383966 -0.124058776 0.7610949 0.4079571 -0.051992323 -0.23265655 0.18286307 -0.12797627
这 -0.17953824 0.2672133 0.05067704 0.08347135 0.13610722 -0.39041856 0.18978675 0.6891133 -0.28851816 -0.22735326 0.020456713 -0.46695107 -0.0073449775 -0.04335807 0.00648772 -0.19009466 0.25945032 -0.27705652 -0.098033875 -0.7385668 0.0052384557 -0.07094868 0.3461182 -0.21958874 0.1693694 -0.07274478 -0.049037647 -0.109760314 -0.30596063 -0.18141614 0.07283153 0.04036066 0.116938725 -0.4361339 -0.17934915 0.10788623 0.20388348 -0.33780578 -0.097700074 -0.5816063 0.23785904 -0.56365937 -0.24934499 0.11265286 0.19073792 -0.13667093 -0.2806317 -0.23737133 0.34396604 0.122512415 0.08781453 -0.3522537 0.11362487 0.03682038 -0.19845657 0.06885917 0.27097374 -0.13921364 -0.16984874 0.3510662 0.12870078 -0.08204705 0.019295217 -0.24029237 -0.5089912 0.30146348 0.2196425 0.34752768 -0.4729207 0.40412512 -0.13782454 0.2804751 0.4470009 0.0029331855 0.34436634 0.06753025 0.1139063 -0.22278476 -0.29415482 0.2077212 -0.18523209 -0.19818272 -0.12729228 0.33450744 -0.16348122 -0.29524085 0.01828861 0.19774736 0.3321057 0.18183993 0.2931136 0.32855555 0.006607252 -0.12672961 0.7776106 0.42592096 -0.050649226 -0.23388192 0.17184688 -0.13599025
说 -0.15744425 0.23821029 0.037934616 0.07783453 0.111561395 -0.3485372 0.17324285 0.628639 -0.26659015 -0.20522417 0.009960137 -0.4190699 0.0025742988 -0.032816656 0.002523442 -0.1600624 0.24101219 -0.24855527 -0.08161829 -0.6839448 0.020773137 -0.07315845 0.32119673 -0.1950449 0.16156238 -0.06916687 -0.03808745 -0.09845966 -0.27207023 -0.15883526 0.068713866 0.048678998 0.12275692 -0.40174547 -0.1644094 0.10887965 0.1918013 -0.3176564 -0.103661776 -0.5281459 0.21688308 -0.50313634 -0.21386302 0.09974064 0.18299733 -0.12290613 -0.2550007 -0.22395569 0.3126954 0.11556355 0.07256374 -0.313102 0.09171006 0.037866186 -0.18340825 0.056628264 0.23695028 -0.12721844 -0.15824346 0.32179806 0.12907362 -0.07620516 0.012262068 -0.21390332 -0.46773785 0.26869142 0.20066814 0.3115752 -0.42124313 0.37838906 -0.12514418 0.24290772 0.4080703 0.015523474 0.31957236 0.059992082 0.109585665 -0.19916612 -0.27514032 0.1997479 -0.16431092 -0.18650752 -0.13079482 0.30992216 -0.16532531 -0.2677289 0.027417509 0.17982188 0.2918961 0.15866446 0.26577318 0.3042157 -0.0016801266 -0.112707414 0.70118505 0.37854224 -0.058748126 -0.22755168 0.17249937 -0.11230939
见 -0.17866029 0.24128184 0.048627898 0.072912455 0.13247728 -0.37336975 0.17041263 0.66453105 -0.29173902 -0.22090815 0.010467791 -0.44260156 -0.00047097806 -0.036591038 0.016289303 -0.18234454 0.24956477 -0.2698242 -0.09654652 -0.7257183 0.010053166 -0.07585478 0.32809976 -0.21479172 0.17510428 -0.058198046 -0.039700594 -0.09438678 -0.2870895 -0.17418149 0.05619366 0.052791223 0.10936321 -0.4143993 -0.15909642 0.109522104 0.20021345 -0.3406615 -0.09721783 -0.5463989 0.22582544 -0.5412033 -0.2233412 0.11430835 0.18823314 -0.13304868 -0.27296898 -0.21839152 0.3253929 0.10867131 0.08982005 -0.3280401 0.09733401 0.047554664 -0.19738431 0.058025185 0.26082858 -0.12905851 -0.15396675 0.33137777 0.1302182 -0.07898253 0.020662861 -0.22065349 -0.4855114 0.29008275 0.21628767 0.3314656 -0.4609504 0.39609224 -0.13208114 0.27445266 0.4162264 0.005851361 0.32949057 0.064131856 0.120891064 -0.20505022 -0.28176352 0.21212389 -0.18342035 -0.18774115 -0.13556999 0.32251972 -0.16795094 -0.26584053 0.017816301 0.19819765 0.31467065 0.17463273 0.28156158 0.324308 0.007127395 -0.10453509 0.74812 0.41045707 -0.050527193 -0.2365351 0.16572455 -0.12399639
有 -0.14597711 0.21245989 0.04298814 0.07185031 0.09866424 -0.3120617 0.15428956 0.5604857 -0.23302406 -0.18133129 0.011668064 -0.37582392 -0.0025327965 -0.047124792 0.006540294 -0.15719561 0.20254166 -0.2245571 -0.06673223 -0.60436136 0.02044521 -0.073958635 0.27329648 -0.17766623 0.13482764 -0.051840965 -0.03513603 -0.08881988 -0.2471444 -0.15323308 0.05825611 0.03991511 0.105991095 -0.35392767 -0.13460647 0.08318661 0.17139354 -0.27358067 -0.09206379 -0.45443547 0.19226435 -0.46013558 -0.19091675 0.098133266 0.14956978 -0.121918246 -0.20946826 -0.19040981 0.27552617 0.09574564 0.06891215 -0.2723271 0.08911451 0.044520054 -0.16950582 0.055895388 0.21627285 -0.119669884 -0.14272925 0.28553858 0.116893396 -0.06360648 0.019254051 -0.18991181 -0.41066962 0.24174918 0.17939748 0.28522322 -0.37619162 0.3175625 -0.112930305 0.21824342 0.36022845 0.008739364 0.28768694 0.063270696 0.094515644 -0.16769601 -0.23174502 0.16986491 -0.15117148 -0.160086 -0.11187314 0.27025133 -0.14816247 -0.23718409 0.02291065 0.15920557 0.26503503 0.1408855 0.23403496 0.2647706 0.008444842 -0.09290545 0.6317573 0.34145048 -0.0528923 -0.19257888 0.13559857 -0.11183071
却 -0.17867956 0.24376501 0.060359266 0.079312295 0.123294614 -0.38335985 0.16919105 0.6624877 -0.2754589 -0.22664514 0.020046614 -0.44767934 0.004299055 -0.041538604 0.012885817 -0.18154208 0.24660073 -0.2643061 -0.08231796 -0.7181184 0.012798367 -0.073306516 0.33795527 -0.22487958 0.17555435 -0.06355888 -0.043912143 -0.09607282 -0.2917131 -0.16431445 0.060575556 0.053772796 0.121642746 -0.41994974 -0.17116463 0.12213068 0.200813 -0.34331742 -0.10183193 -0.5599974 0.23976447 -0.55132586 -0.22447836 0.11420104 0.19772378 -0.13062447 -0.26951292 -0.22689748 0.3296612 0.103123575 0.095510334 -0.3220856 0.11502684 0.037769243 -0.20580865 0.06978776 0.24747166 -0.1269743 -0.15962365 0.33857188 0.13799483 -0.071299404 0.013467576 -0.23062901 -0.47808397 0.28560513 0.2202279 0.33284447 -0.45194718 0.39951748 -0.13940121 0.269751 0.42231244 0.014894225 0.3456919 0.07691671 0.11379937 -0.21467073 -0.27645957 0.21950544 -0.16870493 -0.19232409 -0.13023885 0.31501973 -0.17133005 -0.2744101 0.015237798 0.1851153 0.3207472 0.18430962 0.29163498 0.31925222 -0.0044350256 -0.12185175 0.75204587 0.3976195 -0.06264226 -0.22834285 0.17085034 -0.13650241
、 -0.16832931 0.24364239 0.044130486 0.0746253 0.12493985 -0.38050956 0.17295222 0.6809611 -0.27526236 -0.23372589 0.027130675 -0.43564218 -0.015648635 -0.04787942 0.01707573 -0.16849792 0.24076201 -0.2697871 -0.08578797 -0.73297983 0.0053180754 -0.07817702 0.3399647 -0.22384728 0.17046195 -0.066120856 -0.034209125 -0.099594735 -0.28900817 -0.16398056 0.062214673 0.03802636 0.12801956 -0.42192474 -0.16290717 0.10839283 0.19150692 -0.3435062 -0.09786592 -0.55829144 0.24117035 -0.5536047 -0.23794927 0.106771395 0.19903992 -0.14443451 -0.25925547 -0.23190819 0.33136234 0.12381632 0.08332681 -0.3386199 0.10662054 0.04987396 -0.18724473 0.06037318 0.25816673 -0.13059483 -0.16859742 0.34056908 0.125251 -0.06972682 0.019907812 -0.22616707 -0.49320176 0.29719302 0.22935247 0.34494612 -0.46749192 0.39924186 -0.13022698 0.2648315 0.43805832 0.0064788107 0.3358 0.06822746 0.115646236 -0.2116307 -0.287543 0.20350975 -0.16573729 -0.19453318 -0.13512592 0.33029228 -0.15668 -0.2732233 0.022354038 0.19449113 0.3116142 0.18266755 0.2758294 0.31766805 0.008911888 -0.11614121 0.7513752 0.41125864 -0.044591248 -0.22940335 0.18444796 -0.13474128
… -0.11834022 0.17310633 0.028380724 0.05558085 0.07945068 -0.2677896 0.12513416 0.47689217 -0.20804083 -0.16736008 0.003857043 -0.29754204 -0.016509846 -0.017770002 0.0067817722 -0.120966315 0.16671707 -0.1873115 -0.058620963 -0.49491584 0.0008199596 -0.05373962 0.23233731 -0.14227407 0.12406107 -0.04661333 -0.019718658 -0.078981735 -0.20591426 -0.10846308 0.05104208 0.022814019 0.081473894 -0.3010119 -0.11872747 0.087021224 0.1277891 -0.22539283 -0.06427114 -0.38923422 0.15322138 -0.37825197 -0.1640257 0.083865695 0.14370441 -0.09095202 -0.18370053 -0.15833373 0.2215092 0.076413654 0.06010641 -0.21517465 0.06445603 0.01839615 -0.1325371 0.04844935 0.16467015 -0.10272545 -0.11400793 0.22817802 0.08006501 -0.055220224 0.007819462 -0.14999945 -0.3368969 0.20539618 0.15322313 0.23009597 -0.31232852 0.27454653 -0.08802049 0.18398848 0.28266293 0.008125446 0.24585237 0.04563397 0.07694559 -0.14925975 -0.18314327 0.14340466 -0.11173507 -0.142211 -0.07885148 0.21226203 -0.1036268 -0.19156162 0.02058846 0.12587161 0.22748727 0.12844464 0.18900366 0.2081169 0.009319779 -0.08500684 0.50701195 0.28402263 -0.045231633 -0.16923897 0.13217553 -0.08783181
都 -0.17652094 0.2472743 0.046541676 0.07283731 0.117853805 -0.38209695 0.16836518 0.6796658 -0.27703455 -0.22765988 0.01750715 -0.449166 0.0009269296 -0.03615934 0.012827538 -0.18315835 0.24062684 -0.25548914 -0.092432454 -0.71682554 0.021178408 -0.072708406 0.3275733 -0.21119055 0.16322973 -0.0716101 -0.031190824 -0.114044875 -0.29000512 -0.17363119 0.053322222 0.045770165 0.12456673 -0.4198542 -0.17480667 0.1192671 0.19489689 -0.34311643 -0.10204072 -0.5557531 0.24524413 -0.54018885 -0.2230129 0.10322929 0.19421144 -0.1275821 -0.26278847 -0.2332487 0.33007762 0.1121482 0.077977866 -0.3370226 0.105647795 0.04020598 -0.18630828 0.06375736 0.25974572 -0.13354927 -0.15428421 0.32301912 0.1335745 -0.07284637 0.017642327 -0.23003042 -0.4929233 0.3011941 0.2174124 0.33559456 -0.46073422 0.39555934 -0.12464896 0.2639177 0.43146023 0.011142209 0.3449964 0.08271892 0.117936544 -0.21233034 -0.292393 0.21841265 -0.17600462 -0.18655847 -0.12960006 0.3287789 -0.15716991 -0.27432024 0.025017997 0.19816619 0.31360057 0.1802904 0.28177226 0.3141357 0.0090215 -0.11645344 0.74355173 0.41489914 -0.06460933 -0.23351653 0.17000826 -0.12114327
到 -0.17108409 0.25123602 0.058259398 0.078551725 0.11697371 -0.38818753 0.17972593 0.6813426 -0.2906847 -0.23366132 0.02177109 -0.44182712 -0.008878557 -0.04252244 0.010828714 -0.18175109 0.24164167 -0.26500872 -0.08819428 -0.72885 0.01883003 -0.07437544 0.34597203 -0.2298707 0.16856048 -0.07218973 -0.032525007 -0.09911389 -0.300422 -0.17497276 0.06814698 0.04945336 0.122753665 -0.4307231 -0.16226739 0.10862665 0.1968798 -0.34781584 -0.11163276 -0.5713401 0.23315062 -0.5521531 -0.23985335 0.11330059 0.20013767 -0.13376604 -0.26736256 -0.23676828 0.34663913 0.11628487 0.09379051 -0.32853436 0.09685377 0.032568347 -0.19061196 0.069301456 0.25700736 -0.13369618 -0.17089216 0.33246538 0.12523507 -0.0665404 0.01312748 -0.24325298 -0.50308275 0.30521995 0.22343607 0.33526954 -0.46665624 0.39900494 -0.14211586 0.26961052 0.4385832 0.012681143 0.34099296 0.07710638 0.12656693 -0.2252936 -0.29712373 0.21962725 -0.18675776 -0.1919405 -0.14146875 0.33650395 -0.17403527 -0.28944033 0.021473764 0.19514732 0.32575688 0.18684158 0.28757998 0.32574174 0.009220631 -0.115325905 0.7573768 0.41473487 -0.054092906 -0.22505535 0.17265913 -0.13997295
着 -0.16706155 0.2590972 0.04261325 0.07517095 0.11663926 -0.36527178 0.18519087 0.6614002 -0.2746747 -0.21387237 0.019158175 -0.44372323 -0.0034839038 -0.04518968 0.009775823 -0.16911733 0.23867418 -0.24762052 -0.08968417 -0.7104909 0.0107069155 -0.08366647 0.31893152 -0.20845003 0.15733972 -0.060959518 -0.03491253 -0.110935695 -0.28886828 -0.17577739 0.052832432 0.046133157 0.12703967 -0.4159299 -0.17010236 0.12030274 0.20451264 -0.32046378 -0.1119009 -0.54361415 0.22761646 -0.5269714 -0.2216459 0.10845518 0.19396916 -0.14067046 -0.25575352 -0.22327632 0.33114287 0.11754614 0.08333968 -0.32252666 0.09677087 0.03429694 -0.19123957 0.05467695 0.24932547 -0.13215816 -0.15239748 0.32011154 0.12685058 -0.07541588 0.009580468 -0.2274492 -0.47591907 0.28405172 0.2160718 0.33883002 -0.45090723 0.38393214 -0.12612428 0.263514 0.41912058 0.020397391 0.34133106 0.075991735 0.12054282 -0.21052589 -0.27168334 0.21197239 -0.17737557 -0.19242543 -0.12848432 0.30890727 -0.1601213 -0.2821113 0.02066312 0.19304919 0.31063274 0.17486852 0.2689057 0.3153992 0.009593428 -0.108297095 0.74567896 0.4026229 -0.04702487 -0.21825834 0.17020194 -0.12570032
官兵 -0.17249495 0.24299403 0.05642797 0.071944006 0.11888939 -0.37808278 0.18360312 0.6702568 -0.28426796 -0.22596914 0.011810488 -0.44050387 -0.0117407795 -0.04753315 0.012682906 -0.17205462 0.24425949 -0.2529859 -0.08869045 -0.7214466 0.00622778 -0.06920175 0.33906642 -0.220523 0.16934033 -0.05420361 -0.045745555 -0.10740766 -0.29863393 -0.16777551 0.059070814 0.04840165 0.12849762 -0.42148277 -0.17601673 0.11592611 0.18878828 -0.3425104 -0.1121128 -0.5532946 0.23475121 -0.5375255 -0.23214194 0.12206258 0.19884284 -0.13987386 -0.25349784 -0.23812817 0.32656044 0.11565806 0.08703506 -0.33157247 0.10381692 0.04230494 -0.20443986 0.060026295 0.24358493 -0.13198173 -0.16376247 0.32262745 0.13508615 -0.07076723 0.01829638 -0.22315024 -0.4893269 0.29962116 0.2113717 0.329632 -0.4609003 0.39286846 -0.14251502 0.27350712 0.42830524 0.0030411163 0.34196198 0.08076907 0.10989636 -0.20494013 -0.28933772 0.21684152 -0.16875513 -0.18866536 -0.1383576 0.31985223 -0.16566457 -0.2730135 0.03120713 0.18858543 0.3024906 0.16374257 0.27936697 0.31615734 0.0040760236 -0.1143766 0.7517355 0.4036013 -0.047964588 -0.22577186 0.16501483 -0.12810043
把 -0.18620344 0.24891758 0.04859973 0.08499429 0.124637105 -0.373391 0.17767146 0.6751513 -0.2848715 -0.22534616 0.015073703 -0.45138595 -0.012045401 -0.04117266 0.0045790495 -0.18886729 0.2388886 -0.25639766 -0.08773961 -0.7252685 0.02289465 -0.08552423 0.34226927 -0.21659684 0.17545071 -0.06933097 -0.029469283 -0.11171653 -0.2874261 -0.16822168 0.063510835 0.052396353 0.12763375 -0.41998053 -0.1619111 0.117424734 0.20031711 -0.3325347 -0.09889291 -0.5683279 0.24216373 -0.550179 -0.2302352 0.10976212 0.18820935 -0.13757797 -0.26387057 -0.23977351 0.34254974 0.11259882 0.0946215 -0.33278528 0.112836 0.038066786 -0.20238678 0.069462314 0.2546034 -0.13174452 -0.17177044 0.34049466 0.13174742 -0.07241779 0.01782541 -0.23627011 -0.49983686 0.288891 0.22690749 0.345315 -0.46873483 0.40857786 -0.13298011 0.26499718 0.43079126 0.0149917845 0.33537236 0.07657876 0.12508574 -0.20786896 -0.28179795 0.21599127 -0.180555 -0.1972802 -0.122533396 0.31941688 -0.17004226 -0.2839989 0.028649617 0.18917207 0.3202505 0.17848212 0.28206438 0.31307286 -0.0035535877 -0.1115337 0.7501405 0.41788295 -0.05874841 -0.24363416 0.17073825 -0.12110019
叫 -0.11706212 0.17163989 0.023476286 0.041147087 0.07576964 -0.24464397 0.10911805 0.4284189 -0.19623247 -0.14767754 0.01745345 -0.29825452 -0.008587029 -0.028421482 0.011263488 -0.12556984 0.16830684 -0.17830636 -0.054625634 -0.4616264 0.014143292 -0.044949558 0.22693446 -0.13667725 0.10138993 -0.03630144 -0.03313388 -0.07412168 -0.18374598 -0.12073474 0.03555396 0.027666925 0.08053329 -0.2672509 -0.10686338 0.07873666 0.12649451 -0.21567024 -0.074358754 -0.3652469 0.14834005 -0.35501012 -0.14629626 0.08031167 0.11977144 -0.086675465 -0.16423255 -0.15657715 0.21270545 0.07216804 0.053341735 -0.20708576 0.07653403 0.03669212 -0.119545475 0.0341368 0.16523807 -0.09613342 -0.1105265 0.20886354 0.08871 -0.046103828 0.0033453994 -0.14302649 -0.31817892 0.1916008 0.14037429 0.21623081 -0.30069613 0.26396206 -0.08679403 0.16904937 0.28391963 0.0091906255 0.21741042 0.05625067 0.073028125 -0.13012469 -0.18807851 0.12894489 -0.12060796 -0.1278138 -0.084281996 0.20834647 -0.10422359 -0.1766322 0.013056623 0.12961751 0.20254974 0.11505268 0.18178427 0.20494105 -0.002566435 -0.07863682 0.49034804 0.26655594 -0.044594213 -0.14496118 0.11242628 -0.086079575
武官 -0.14357372 0.19481106 0.035472754 0.051062454 0.0972064 -0.30649439 0.13535914 0.5222765 -0.21465324 -0.17836955 0.004018081 -0.34409332 -0.013096833 -0.03712537 0.011110771 -0.14793625 0.18462537 -0.2131805 -0.06396563 -0.5606617 0.014454907 -0.05896443 0.2682149 -0.17604218 0.14182927 -0.04430518 -0.025477488 -0.07403498 -0.23820075 -0.13698421 0.058944233 0.036424115 0.08717628 -0.33078232 -0.13555361 0.08621726 0.1557271 -0.25847808 -0.082417764 -0.4366577 0.18384477 -0.42010134 -0.18994664 0.08026623 0.14522682 -0.11371597 -0.21376047 -0.18270639 0.263392 0.09134826 0.074797794 -0.26317415 0.0853647 0.033502623 -0.14728154 0.05917429 0.19865404 -0.10607664 -0.13557352 0.25789648 0.09633659 -0.05634113 0.0065969722 -0.18770343 -0.38529843 0.23479849 0.16511318 0.26591584 -0.35484856 0.31549293 -0.11073764 0.22036365 0.34635398 0.00902385 0.267761 0.047391932 0.08819374 -0.16650437 -0.22011401 0.1651297 -0.14799757 -0.14192653 -0.10981588 0.26297736 -0.12673277 -0.226549 0.020077929 0.1598942 0.24046665 0.1304437 0.23199213 0.25241086 0.013507142 -0.09983362 0.58998615 0.3287463 -0.045718864 -0.1831585 0.13019887 -0.10585986
上 -0.1589497 0.22816855 0.042802617 0.05881797 0.11530736 -0.32998854 0.1526777 0.5815483 -0.2437324 -0.1985902 0.013177673 -0.38632867 0.003955354 -0.031757668 0.011441695 -0.15966651 0.21529762 -0.22506286 -0.08452892 -0.6317772 0.0075193085 -0.0640861 0.2812326 -0.19379908 0.15183051 -0.06048745 -0.025182892 -0.09052681 -0.25682735 -0.15501174 0.05391216 0.04472644 0.096952505 -0.36582056 -0.15254325 0.10492432 0.17042617 -0.28622705 -0.09012113 -0.49039564 0.2044305 -0.4695167 -0.19734962 0.089577675 0.1572797 -0.12289915 -0.22568591 -0.20367539 0.28720987 0.102983385 0.07983234 -0.2844049 0.087602235 0.036361393 -0.17619559 0.049990896 0.22953865 -0.12170727 -0.15120634 0.29206744 0.122335345 -0.06195593 0.015466253 -0.20379059 -0.42728618 0.24566592 0.18413463 0.28080657 -0.40127403 0.34939378 -0.1078059 0.2288047 0.3696721 0.017440625 0.29428983 0.058104802 0.105361156 -0.18120925 -0.24978408 0.17579989 -0.1412147 -0.1559644 -0.12030731 0.27319705 -0.14233242 -0.2389428 0.010408832 0.17597502 0.26485887 0.1557638 0.2540618 0.27555704 0.008504286 -0.101179525 0.6389865 0.3531213 -0.049019404 -0.20954399 0.15732482 -0.11722781
就 -0.15005039 0.2188622 0.03555656 0.058728777 0.115801826 -0.33920684 0.16208167 0.59316975 -0.24210638 -0.19094132 0.023277685 -0.382973 -0.013915153 -0.049408577 0.004828275 -0.15764543 0.22188465 -0.22729327 -0.08212731 -0.63376445 0.006986588 -0.07503312 0.3003374 -0.20231475 0.14784823 -0.06301023 -0.026076587 -0.09664002 -0.25457463 -0.15903845 0.06603224 0.03521861 0.10893688 -0.3652496 -0.14015396 0.09456052 0.1716075 -0.30368862 -0.08480356 -0.49768752 0.21496978 -0.48098123 -0.1981682 0.09407055 0.16835092 -0.1190481 -0.2425531 -0.19515844 0.29014787 0.1064168 0.077561855 -0.28773677 0.09512198 0.04556937 -0.18219759 0.06580333 0.23369193 -0.11939191 -0.13979915 0.29777303 0.12009775 -0.06667828 0.016247645 -0.20345373 -0.42680642 0.26870644 0.18814465 0.2960479 -0.4124324 0.34658715 -0.12941258 0.23855281 0.37552103 0.009211295 0.30531025 0.056730807 0.105910875 -0.1888623 -0.25485006 0.17720367 -0.16264346 -0.1580668 -0.12117859 0.2894241 -0.15142523 -0.2465178 0.022211954 0.16170241 0.27078375 0.14637043 0.24076074 0.2754197 0.00037430032 -0.10053433 0.66170216 0.35225686 -0.05255794 -0.2060311 0.1469145 -0.11924538
郭 -0.16210797 0.21954156 0.035434343 0.060437437 0.11705756 -0.35139656 0.1566106 0.61617136 -0.24945508 -0.21167763 0.021977779 -0.40968847 -0.0050357077 -0.03296999 0.00823896 -0.15040582 0.22116469 -0.23130505 -0.07348147 -0.66377634 0.0030245841 -0.07804204 0.30260432 -0.20479248 0.15120956 -0.06876553 -0.03405787 -0.09548546 -0.25610414 -0.1674081 0.052869268 0.05015289 0.11826415 -0.37792733 -0.15103547 0.09600225 0.18045023 -0.31448922 -0.10257436 -0.5025895 0.2158618 -0.48352027 -0.22245407 0.10369308 0.17482622 -0.12725523 -0.23982869 -0.20239627 0.29058385 0.102512166 0.084599726 -0.29862112 0.09832313 0.04762395 -0.17083591 0.062190235 0.23895831 -0.13210924 -0.13889869 0.3068382 0.11238072 -0.069468714 0.022718975 -0.20361763 -0.45339268 0.26667097 0.19912808 0.30342835 -0.40506017 0.3484978 -0.11136725 0.2309429 0.393641 0.021381602 0.30062142 0.054692917 0.11534742 -0.20283528 -0.2669674 0.18829602 -0.16630493 -0.16132736 -0.10856576 0.2922902 -0.142555 -0.23889731 0.02656075 0.17896187 0.28892463 0.16520798 0.26090112 0.2951046 -0.004972496 -0.09150362 0.68837327 0.38026303 -0.06001097 -0.21337101 0.15613772 -0.11000985
将 -0.18138784 0.24936129 0.05664334 0.08602011 0.11899269 -0.37055624 0.18159176 0.6599252 -0.2784243 -0.22996701 0.01531913 -0.43075258 -0.0010634039 -0.054258652 0.0057938183 -0.17173925 0.2426572 -0.262531 -0.082759194 -0.70814115 0.004522701 -0.064878814 0.32142344 -0.2181341 0.17414802 -0.06308956 -0.043424003 -0.10270148 -0.29073924 -0.17737046 0.053978596 0.05051403 0.10855843 -0.40556517 -0.17084043 0.11692462 0.19158037 -0.33630383 -0.095022425 -0.55833435 0.2354024 -0.53711855 -0.23535985 0.1041051 0.19382674 -0.13730238 -0.255597 -0.23740415 0.3264101 0.10986745 0.080148056 -0.32893395 0.09381291 0.03723076 -0.1970402 0.06152868 0.24535513 -0.14351644 -0.15615222 0.3264495 0.13547574 -0.067185864 0.023380658 -0.23133308 -0.48987246 0.29070204 0.20934026 0.33625993 -0.44144756 0.38856488 -0.12584506 0.27109075 0.4243489 0.016161554 0.34257975 0.07265082 0.10841703 -0.21706876 -0.2815848 0.20552081 -0.16316786 -0.1952179 -0.13050677 0.32636195 -0.16545618 -0.28240162 0.023616346 0.1836692 0.3022911 0.16543645 0.27843788 0.319704 0.008942041 -0.10321161 0.7465846 0.40543345 -0.060555518 -0.21934897 0.16083631 -0.13023332
丘处机 -0.17036365 0.2639921 0.046135604 0.070135966 0.13348801 -0.38732195 0.17558683 0.6884786 -0.28431907 -0.22497834 0.014003129 -0.44041 0.0038614785 -0.037768334 0.022731703 -0.18656066 0.24924396 -0.26667845 -0.085988104 -0.7226637 0.018693333 -0.074165575 0.3450911 -0.21229315 0.1683258 -0.07434706 -0.041845012 -0.097169824 -0.3000252 -0.17394811 0.06943217 0.040499408 0.12936786 -0.42003176 -0.1664137 0.12420062 0.20312122 -0.3395654 -0.114357084 -0.5545684 0.23166165 -0.54073864 -0.23078655 0.11548077 0.18450116 -0.12663928 -0.2694255 -0.2278541 0.33161882 0.1103102 0.09028052 -0.34422427 0.09919174 0.033331208 -0.1934278 0.06649492 0.25694135 -0.13305667 -0.16764528 0.32972834 0.1352036 -0.077387474 0.016685482 -0.22470826 -0.49719775 0.3043942 0.22878906 0.33607054 -0.46908724 0.40869814 -0.1352148 0.27027228 0.43384677 0.006462352 0.3453325 0.07206915 0.12401219 -0.2182597 -0.287747 0.2161312 -0.18640935 -0.19421789 -0.14002784 0.329069 -0.16799942 -0.27746803 0.023691589 0.19567475 0.31971702 0.17579675 0.292285 0.31953642 -0.0022204877 -0.1194974 0.7507787 0.40384623 -0.053591598 -0.23051597 0.16988537 -0.13828939
颜烈 -0.15263246 0.21473034 0.031853937 0.07019729 0.1093087 -0.3071159 0.13894406 0.56088537 -0.2439189 -0.17711237 0.006711564 -0.36847547 -0.0005885664 -0.036755987 0.016596075 -0.15279064 0.20715034 -0.22624269 -0.068830475 -0.60036105 0.0056709824 -0.0624707 0.27641046 -0.17923053 0.1349044 -0.06264028 -0.041458324 -0.09383479 -0.24952768 -0.14617035 0.062915474 0.036828585 0.09185425 -0.351517 -0.13501167 0.092461884 0.16149397 -0.2810175 -0.07914135 -0.46898532 0.18873926 -0.4413634 -0.19849788 0.09689594 0.15850359 -0.10210899 -0.21338105 -0.1882267 0.2766102 0.09577902 0.074947335 -0.2769069 0.09003379 0.03915956 -0.1538419 0.053567972 0.20697072 -0.10675187 -0.1438654 0.2742126 0.10230969 -0.053378373 0.0050886213 -0.18714769 -0.39540604 0.24119735 0.1750465 0.2709261 -0.3759763 0.32113317 -0.106607765 0.21948063 0.36021262 0.008206158 0.2736062 0.055305377 0.09878771 -0.17920527 -0.22735967 0.16786575 -0.15108426 -0.15634486 -0.11251885 0.25916445 -0.14244673 -0.2316361 0.020606054 0.16356328 0.26649585 0.15066668 0.2405853 0.26185113 -0.0022961688 -0.08370908 0.61869156 0.34026346 -0.045527477 -0.18567756 0.14882645 -0.11314858
听 -0.15304342 0.21642701 0.0459495 0.056786828 0.111134395 -0.32013863 0.15117821 0.5714887 -0.25086054 -0.18372943 0.004004444 -0.38592666 -0.001323076 -0.046152774 0.0068380493 -0.15321173 0.20677732 -0.23120607 -0.07190432 -0.61623967 0.0141711915 -0.06730183 0.2932692 -0.19650291 0.14874277 -0.06099035 -0.030927062 -0.09747719 -0.25144982 -0.15450326 0.050463278 0.050069958 0.104826465 -0.35419098 -0.15058503 0.10208379 0.16183078 -0.2891099 -0.09475862 -0.48370793 0.2061145 -0.46750218 -0.19549942 0.10075356 0.15556787 -0.11678854 -0.22910722 -0.20800382 0.27284488 0.09815735 0.078782775 -0.28295597 0.0843901 0.039379586 -0.16602083 0.045438662 0.22471225 -0.108538285 -0.1469944 0.28404346 0.1192563 -0.06415113 0.012046019 -0.20133318 -0.4105651 0.25820458 0.19210006 0.28102446 -0.3913168 0.3324331 -0.12641402 0.23598978 0.36360034 0.008687164 0.29698318 0.05318185 0.10808408 -0.18910502 -0.24803063 0.18400711 -0.15240893 -0.16498294 -0.11715449 0.27152562 -0.14526379 -0.24146456 0.028901976 0.17395921 0.26677158 0.14834419 0.23638444 0.279544 -0.0013333329 -0.0905564 0.6491821 0.35436296 -0.048734996 -0.19075032 0.15500931 -0.11326773
已 -0.15772584 0.23465785 0.05264283 0.06922978 0.11413384 -0.34814903 0.15152302 0.6018986 -0.2618353 -0.20221806 0.0095442915 -0.4006635 0.0029530856 -0.03072016 0.01848523 -0.1574551 0.2184416 -0.23406076 -0.08461841 -0.6613389 0.018403605 -0.07829115 0.30524716 -0.20073912 0.14540012 -0.059933323 -0.040822234 -0.085584395 -0.2697243 -0.16501974 0.0628434 0.04622859 0.112163395 -0.3729505 -0.15566115 0.096935004 0.18199803 -0.29477316 -0.09816376 -0.50659657 0.21564429 -0.48360386 -0.21674559 0.0978842 0.1684326 -0.11979065 -0.23382637 -0.2020591 0.28994748 0.110162884 0.07731083 -0.30180198 0.08526781 0.031891122 -0.1680208 0.06117051 0.22233327 -0.11994333 -0.15548891 0.29138276 0.12178552 -0.06241459 0.0146203805 -0.20012526 -0.43476012 0.26068857 0.20225778 0.30467325 -0.40996987 0.36353183 -0.12885512 0.23910356 0.38639233 0.01648941 0.3046905 0.074362956 0.10288547 -0.19998182 -0.2637194 0.18526 -0.14821374 -0.1751528 -0.1211891 0.29826337 -0.15827006 -0.24860223 0.025020732 0.16580966 0.28244883 0.15583996 0.2618097 0.28311747 -0.0018561383 -0.09263445 0.67216843 0.3757444 -0.059062224 -0.20105547 0.1538445 -0.12230026
中 -0.15572745 0.22024311 0.0433115 0.067014225 0.102346286 -0.3373915 0.1526935 0.60053897 -0.24504793 -0.19846025 0.008339079 -0.38459358 -0.01373592 -0.037239 0.014879369 -0.15816697 0.21082169 -0.23902506 -0.08754298 -0.6294416 0.014436123 -0.06825019 0.3039034 -0.2002801 0.14751224 -0.0584681 -0.041940425 -0.101512074 -0.2488665 -0.15654828 0.047584277 0.049011584 0.098591045 -0.3694475 -0.14642976 0.096259885 0.16715573 -0.3000235 -0.09962659 -0.49047643 0.20459187 -0.47767237 -0.20230563 0.09741496 0.17621438 -0.111016 -0.23393176 -0.20417792 0.29138988 0.107387744 0.08587826 -0.29365474 0.090835705 0.033570684 -0.17260194 0.05046809 0.22203197 -0.1290103 -0.14348824 0.29503816 0.11936571 -0.06574106 0.01907779 -0.21042778 -0.4205727 0.25944993 0.19763653 0.29898074 -0.40207326 0.34917888 -0.11769056 0.2250586 0.37217957 0.0064198337 0.28874382 0.06814802 0.10920578 -0.18884477 -0.24285214 0.18352008 -0.1535778 -0.16081993 -0.12244054 0.27712765 -0.13911308 -0.25074592 0.02720155 0.17499366 0.26733983 0.16220005 0.25520816 0.27261207 -0.0052611944 -0.108960435 0.6639801 0.3653194 -0.051469807 -0.20171331 0.14482833 -0.117691934
咱们 -0.15347555 0.21842554 0.03592441 0.070972055 0.10282098 -0.34641722 0.16292417 0.6121571 -0.26415858 -0.1940499 0.02253671 -0.3921509 -0.010648123 -0.030333763 0.00390814 -0.16442122 0.2216536 -0.24219117 -0.0913418 -0.64542264 0.020732783 -0.07382726 0.2959865 -0.18922386 0.14865229 -0.06637791 -0.028283613 -0.097733565 -0.25719488 -0.15037934 0.06541685 0.05131212 0.11437516 -0.38304606 -0.1485956 0.101378046 0.17786573 -0.29187763 -0.08830354 -0.507879 0.22506595 -0.4880391 -0.20672707 0.10782848 0.16482578 -0.12113045 -0.23434938 -0.19975546 0.3013944 0.09942032 0.07100898 -0.30035114 0.10227699 0.027235014 -0.16692424 0.058488596 0.22533165 -0.11152005 -0.13501012 0.30720004 0.12721083 -0.073484726 0.022432111 -0.21556032 -0.44542974 0.25412223 0.20097242 0.308772 -0.41635904 0.35023534 -0.12465074 0.2341929 0.38137174 0.015562279 0.30576873 0.06394065 0.1021996 -0.19209118 -0.25616103 0.1911247 -0.14798155 -0.16228282 -0.12406868 0.28234828 -0.15881726 -0.2550707 0.025482567 0.16651681 0.28271195 0.1651522 0.25652537 0.28450984 0.01095518 -0.0948731 0.6701333 0.35795966 -0.049574517 -0.20001769 0.16316272 -0.119517274
甚么 -0.10495893 0.1669157 0.037541952 0.045143045 0.08493967 -0.24313338 0.1045476 0.44115815 -0.19545883 -0.15175712 0.012211219 -0.27653685 -0.0065432102 -0.02157364 0.013759752 -0.11147551 0.15207209 -0.16238694 -0.06578851 -0.4723987 0.013934007 -0.05934441 0.22252074 -0.14265981 0.1080669 -0.04971519 -0.031720787 -0.072087474 -0.17942311 -0.10580027 0.030353064 0.024333782 0.08113289 -0.2798751 -0.10085995 0.07933272 0.11787912 -0.20865859 -0.058064032 -0.3625441 0.15670352 -0.35781246 -0.14288463 0.08206172 0.12772349 -0.096900664 -0.16537748 -0.15261318 0.21235554 0.07922895 0.058687218 -0.20954297 0.061100155 0.03204066 -0.13118638 0.042226642 0.1687366 -0.08431082 -0.09614389 0.21225467 0.08951565 -0.03790719 0.007452744 -0.1424295 -0.32629824 0.19834739 0.1479415 0.22384888 -0.29066655 0.25942317 -0.090989254 0.16562776 0.27311727 0.008997702 0.21577607 0.03869851 0.07067618 -0.12909424 -0.17308386 0.14105691 -0.11748008 -0.12275272 -0.09227895 0.21539176 -0.10671335 -0.17279227 0.010880897 0.12068749 0.20530476 0.11670486 0.17497921 0.19620498 0.003643931 -0.0823742 0.4907663 0.26835826 -0.0389743 -0.15649024 0.10402068 -0.08462484
便 -0.16672216 0.25036353 0.04207158 0.08616077 0.113896206 -0.3686549 0.18236075 0.66656953 -0.2908344 -0.21566501 0.0066956365 -0.44224977 0.0027732633 -0.052845743 0.00420219 -0.18068337 0.24531464 -0.25648525 -0.09447495 -0.71747535 0.021058328 -0.06563914 0.34054253 -0.21436189 0.16850686 -0.06318779 -0.036232073 -0.0994931 -0.28568202 -0.17029963 0.05927295 0.039233763 0.12574157 -0.41778773 -0.1630226 0.11069762 0.19243565 -0.33667096 -0.09851041 -0.5574344 0.22813998 -0.5389403 -0.2244394 0.11844544 0.18568435 -0.12588802 -0.2685276 -0.2332222 0.3184495 0.10592884 0.09353515 -0.33757466 0.094859265 0.03041572 -0.18547828 0.061582226 0.25235677 -0.14065646 -0.1634888 0.3291116 0.1273191 -0.07810473 0.008160692 -0.2263191 -0.49193686 0.29135084 0.21806513 0.33984426 -0.45165515 0.39510787 -0.1412404 0.2558479 0.42751065 0.0118862 0.32928592 0.06981044 0.12675755 -0.21856178 -0.28478247 0.20726562 -0.1728137 -0.17704266 -0.12959155 0.31135532 -0.17249331 -0.28422335 0.014632228 0.18347058 0.30291265 0.17040853 0.27860412 0.30849028 0.006477645 -0.1081756 0.74951535 0.39720076 -0.04884221 -0.22088869 0.16802736 -0.1333077
只 -0.15791683 0.21497068 0.051439714 0.07771336 0.1176115 -0.34104466 0.16030967 0.5962502 -0.24433398 -0.20612349 0.013714475 -0.39638865 -0.0145284105 -0.03673863 0.020267818 -0.14911214 0.2083056 -0.22826979 -0.08297063 -0.6246159 0.0019141086 -0.057974473 0.28728193 -0.19913906 0.14835666 -0.05840392 -0.042174034 -0.09314577 -0.25577495 -0.15843114 0.060828436 0.044679277 0.113478065 -0.35806796 -0.15471773 0.103840254 0.18094969 -0.2891147 -0.085229956 -0.49517795 0.21436842 -0.47619605 -0.20340736 0.09328081 0.16807659 -0.113159485 -0.24164654 -0.19452076 0.29354718 0.09996382 0.07332377 -0.29110777 0.09890857 0.04157782 -0.1783861 0.065203615 0.22293796 -0.12752996 -0.1342687 0.29830098 0.11992411 -0.05478625 0.0057001314 -0.20885402 -0.43112668 0.25372168 0.19363946 0.2933442 -0.40960872 0.34759533 -0.116667524 0.233257 0.38013244 0.010836426 0.30309367 0.061987508 0.11324374 -0.18760094 -0.24638999 0.17986016 -0.14733383 -0.1630645 -0.113195956 0.29240197 -0.1550093 -0.23413701 0.020562116 0.1665302 0.27047208 0.14395878 0.2462239 0.28202116 0.010413146 -0.090003535 0.6493802 0.36668083 -0.058047146 -0.19813108 0.16068147 -0.114885874
好 -0.15547547 0.20333451 0.04376487 0.06432391 0.09456279 -0.31250322 0.1509829 0.5676935 -0.23460229 -0.18454158 0.0027776312 -0.36508897 -0.0011613887 -0.04590871 0.008079693 -0.14843276 0.20510073 -0.21965162 -0.08146887 -0.6058716 0.01535699 -0.06515279 0.28077593 -0.17942615 0.13583507 -0.0625099 -0.0233434 -0.09783625 -0.24650416 -0.14588949 0.044822283 0.041228347 0.10808521 -0.35043612 -0.13238035 0.09471866 0.16049439 -0.28358108 -0.08730558 -0.4602389 0.20731783 -0.44918698 -0.20016104 0.08879763 0.165219 -0.11129358 -0.21561459 -0.19345818 0.28585976 0.08633397 0.08345389 -0.28644577 0.086531065 0.04133106 -0.17527026 0.059091266 0.20525841 -0.12047971 -0.13358583 0.28111976 0.10734965 -0.05218696 0.0058447104 -0.19258267 -0.4006616 0.24829794 0.17886382 0.28591216 -0.38818583 0.33056873 -0.11088343 0.23113552 0.36506322 0.00415404 0.2928512 0.05659463 0.10732394 -0.18552382 -0.2455329 0.17410193 -0.15574312 -0.16233484 -0.109162875 0.2706208 -0.14975052 -0.23951995 0.011810755 0.16062641 0.2671368 0.14669323 0.24648575 0.26143995 0.011324702 -0.08881839 0.6368147 0.340781 -0.045509193 -0.19147958 0.13532667 -0.09771779
一个 -0.17511906 0.2562507 0.05206528 0.079620734 0.1203016 -0.38177422 0.17615423 0.6649014 -0.2911462 -0.22472097 0.011594617 -0.44112775 -0.0021033892 -0.040547818 0.015946545 -0.18126437 0.23413202 -0.25230148 -0.08162437 -0.7057457 0.018141318 -0.08312184 0.33666256 -0.22098903 0.15596613 -0.055558473 -0.040728193 -0.11335243 -0.28938317 -0.16401744 0.05906858 0.050878044 0.11783586 -0.40527135 -0.16405451 0.10233766 0.19188277 -0.3210923 -0.09900601 -0.555211 0.24113733 -0.5264471 -0.22064921 0.112221465 0.1781205 -0.13574083 -0.2546658 -0.234047 0.33482715 0.10219785 0.077282414 -0.3306781 0.108852595 0.032944992 -0.18446238 0.05415576 0.2532345 -0.13065413 -0.16054071 0.33718225 0.1343822 -0.06980413 0.019754445 -0.22040078 -0.47762325 0.29815054 0.2166839 0.32138538 -0.45323288 0.38621408 -0.14102808 0.26013497 0.4270729 0.005679537 0.3383091 0.076348886 0.11611687 -0.20715366 -0.27322534 0.19904521 -0.16763474 -0.17740566 -0.13085471 0.309443 -0.17295597 -0.28163972 0.026062278 0.19444479 0.31457582 0.16969904 0.27889225 0.3146943 -0.0057577626 -0.12093616 0.7415168 0.3917023 -0.058222003 -0.23173963 0.17703457 -0.1285617
杨二人 -0.13390437 0.20900872 0.034671668 0.059800006 0.10310669 -0.31860656 0.15611306 0.5659347 -0.22964267 -0.19443989 0.005072565 -0.36561567 -0.0056837746 -0.043340627 0.019131824 -0.13893893 0.1976351 -0.2128519 -0.067878224 -0.5923006 0.018270914 -0.06447947 0.26859546 -0.18021409 0.12891224 -0.04275441 -0.042492352 -0.08824509 -0.2431017 -0.1404592 0.0580721 0.029607665 0.09209041 -0.34272683 -0.13356718 0.09956799 0.16167207 -0.2798671 -0.09433885 -0.4544893 0.1879657 -0.4426799 -0.19718154 0.083365135 0.16508691 -0.11175448 -0.23088185 -0.20133965 0.27206048 0.08315815 0.07682966 -0.26967674 0.09088009 0.028503796 -0.15262336 0.043014374 0.21798007 -0.112585396 -0.13627997 0.27974677 0.10510055 -0.06504336 0.010762147 -0.19833665 -0.40399545 0.23640281 0.18752497 0.26442403 -0.38127384 0.31402674 -0.12180167 0.22009647 0.34202248 0.00215109 0.2819218 0.05837549 0.1024765 -0.16564718 -0.24629956 0.17969981 -0.15400063 -0.14847505 -0.096762 0.27469447 -0.14664489 -0.22503191 0.009619625 0.15645292 0.25171897 0.13476048 0.23913036 0.26764536 -0.0014163061 -0.10216288 0.6239502 0.332438 -0.055394735 -0.19532545 0.14062254 -0.09367216
说道 -0.1619549 0.23111671 0.051147353 0.06462214 0.10761762 -0.33456066 0.15998574 0.5927375 -0.2553729 -0.20688128 0.019631237 -0.39981627 -0.014543343 -0.03879021 0.013549841 -0.15674518 0.21628228 -0.22759078 -0.07745926 -0.6296374 0.007614965 -0.07459757 0.2867584 -0.18298651 0.14854018 -0.06317466 -0.02768466 -0.08434388 -0.24868956 -0.15920538 0.04961161 0.039299298 0.098758355 -0.3621936 -0.14190291 0.09359607 0.18197456 -0.30410632 -0.08421543 -0.4959846 0.21239905 -0.48177466 -0.20107102 0.10864243 0.1663935 -0.12417735 -0.2412369 -0.2001132 0.29633376 0.10682078 0.07214524 -0.30224314 0.09902908 0.031792738 -0.16950431 0.06615286 0.2190632 -0.11851633 -0.14652312 0.28686908 0.109848276 -0.06343587 0.005650848 -0.20547132 -0.43306386 0.26556554 0.19754769 0.30254552 -0.39925843 0.34312767 -0.124728516 0.24502373 0.38276383 -0.000172233 0.30345643 0.073084146 0.114617966 -0.19533324 -0.2523989 0.1850446 -0.15140007 -0.16841848 -0.11819576 0.29080436 -0.13882074 -0.2456293 0.014701154 0.16526319 0.27051753 0.15806872 0.24911831 0.2765565 -0.005942819 -0.10147943 0.6672919 0.36469585 -0.043316614 -0.2065023 0.16233844 -0.11151978
要 -0.16622788 0.24679032 0.041083027 0.08057323 0.12737815 -0.35610676 0.17264295 0.64435047 -0.27333057 -0.2222343 0.015357114 -0.41981617 -0.013095524 -0.03993614 0.017210372 -0.17673385 0.23516724 -0.24086857 -0.094315946 -0.6832629 0.0023256217 -0.08100428 0.3252556 -0.21404317 0.15670562 -0.07017965 -0.045565035 -0.10698772 -0.2760435 -0.16180041 0.05133414 0.036218945 0.11056539 -0.39734155 -0.16630685 0.10440941 0.1924791 -0.3164032 -0.09090765 -0.5258548 0.22529787 -0.513372 -0.21159148 0.10957855 0.18328333 -0.1270273 -0.26091748 -0.21438481 0.31929287 0.10735093 0.092793606 -0.3210177 0.103103176 0.03129755 -0.19624956 0.06444614 0.24651943 -0.122849956 -0.16356112 0.3207391 0.12718779 -0.064004846 0.014250228 -0.21400619 -0.45695087 0.27041766 0.20010625 0.32588202 -0.43550566 0.36466563 -0.13334683 0.25441334 0.4139711 0.008984576 0.32037878 0.06211556 0.10511328 -0.19954994 -0.27061883 0.19108357 -0.16481316 -0.1891221 -0.12516522 0.31063724 -0.15713651 -0.25547048 0.028383853 0.18156426 0.30318126 0.172369 0.2784683 0.31084707 0.0089000715 -0.1028819 0.71937984 0.38547447 -0.05750984 -0.2102501 0.16664954 -0.12614842
拿 -0.17475355 0.24516696 0.060017686 0.079875514 0.12750836 -0.36826557 0.18499106 0.6617622 -0.28867033 -0.22615705 0.010964357 -0.4487127 -0.007146796 -0.052056678 0.021819873 -0.1792669 0.23576097 -0.26737007 -0.09330399 -0.7262126 0.013538728 -0.070214696 0.32900915 -0.20816737 0.16374698 -0.07223125 -0.041145127 -0.10725691 -0.29550716 -0.18181479 0.05792544 0.044806667 0.12348679 -0.4198349 -0.17249861 0.1141231 0.19604266 -0.3288445 -0.104239926 -0.5485144 0.24348477 -0.54595727 -0.2263085 0.118491545 0.18766485 -0.12593894 -0.26811844 -0.23386571 0.32011303 0.12256058 0.0768045 -0.3325942 0.10271623 0.036195252 -0.18569323 0.05818326 0.24422526 -0.12548922 -0.17113982 0.33969325 0.12614429 -0.065181315 0.01419452 -0.23342657 -0.4923075 0.28549618 0.22642624 0.3385333 -0.45277894 0.39795855 -0.1310574 0.2686729 0.42546895 0.0007777404 0.34529558 0.06445099 0.114694275 -0.20821157 -0.27694806 0.19803935 -0.17116402 -0.18067059 -0.13824186 0.32942474 -0.17043585 -0.26519993 0.015390703 0.19813843 0.31942698 0.16307355 0.2809821 0.3069164 0.012552015 -0.102005206 0.73682505 0.4047564 -0.056174632 -0.23635016 0.17263581 -0.13583454
一声 -0.14603284 0.2069158 0.049796507 0.07243397 0.10202178 -0.32458952 0.14130223 0.5749233 -0.23908506 -0.18244636 0.0163337 -0.37994194 -0.0010153056 -0.029009053 0.0188118 -0.14325607 0.19945028 -0.23033856 -0.07000706 -0.62162685 0.014136541 -0.057250943 0.28012678 -0.17760941 0.13393892 -0.04863044 -0.026270403 -0.08593581 -0.25553066 -0.13757655 0.06173216 0.038135927 0.10562201 -0.34707913 -0.14494503 0.10197646 0.1656001 -0.28652206 -0.08851502 -0.47885355 0.2011804 -0.46853587 -0.19373493 0.1058127 0.16558771 -0.10728562 -0.22930047 -0.19126642 0.27350733 0.09153481 0.084680855 -0.27514598 0.08366961 0.02963618 -0.15962417 0.057730466 0.22334729 -0.12216356 -0.14064008 0.28168246 0.11097217 -0.058343735 0.005438708 -0.19220026 -0.41808283 0.25838715 0.18684456 0.2934493 -0.3889828 0.3396465 -0.1225779 0.2177444 0.36222428 0.0073636184 0.2978862 0.067345925 0.09529065 -0.17192106 -0.24044372 0.1685067 -0.14286816 -0.16216189 -0.11948524 0.28264838 -0.13475418 -0.22659475 0.018839309 0.17160432 0.27095646 0.14127862 0.2495802 0.2662124 -0.005838943 -0.0879239 0.63144004 0.35483396 -0.05541729 -0.18674931 0.14193325 -0.10357
给 -0.123269625 0.19511272 0.03683835 0.053877987 0.0831271 -0.28189105 0.14172794 0.5040063 -0.20937736 -0.16199967 0.0018825214 -0.3323125 -0.012402785 -0.037755616 0.009579521 -0.14120924 0.18058556 -0.20551729 -0.07532053 -0.55335456 0.019741608 -0.049133725 0.25284043 -0.16713305 0.13269879 -0.0475941 -0.0385954 -0.086606845 -0.21904182 -0.12222247 0.05108656 0.044532172 0.09711955 -0.31507346 -0.11882213 0.09503561 0.15914196 -0.24382885 -0.0872329 -0.41851792 0.17128398 -0.4178973 -0.18426867 0.08926959 0.14389086 -0.1081371 -0.19390233 -0.16594955 0.25481245 0.09411236 0.06146689 -0.25668547 0.08230473 0.028253622 -0.15605512 0.05259761 0.1887443 -0.108932324 -0.121587135 0.258881 0.10560309 -0.053865872 0.02000159 -0.1711575 -0.3626226 0.22122645 0.169939 0.2597076 -0.35614207 0.3040287 -0.1013575 0.20806721 0.32065895 0.0050512515 0.25063255 0.0527345 0.086590156 -0.16541661 -0.21382602 0.16670547 -0.126113 -0.15114398 -0.10569123 0.24079473 -0.12188066 -0.2195424 0.022768568 0.1486302 0.23330043 0.1417685 0.22227131 0.24089178 0.008400815 -0.09561256 0.5580021 0.3051967 -0.03286346 -0.17097043 0.13706464 -0.10312353
丈夫 -0.12195367 0.18205084 0.036097154 0.052350376 0.0938084 -0.28135064 0.13274698 0.48926046 -0.20740685 -0.1655707 0.0028910106 -0.32530525 -0.009248164 -0.028127298 0.003720795 -0.12802963 0.16670974 -0.19179429 -0.06586936 -0.52816874 0.012662321 -0.044945862 0.24552059 -0.15522741 0.11535247 -0.047709767 -0.025640555 -0.07335512 -0.20013611 -0.12558644 0.052534785 0.038901683 0.0894706 -0.29136395 -0.12667705 0.07808601 0.150774 -0.23239572 -0.07095881 -0.4048069 0.17780162 -0.38697788 -0.16729529 0.0898609 0.1413024 -0.0921436 -0.1902229 -0.17459618 0.23407146 0.084619515 0.056795064 -0.23066108 0.08185276 0.020711292 -0.14664713 0.040697467 0.182249 -0.10013956 -0.120458975 0.23725414 0.09786105 -0.042543184 0.0064002816 -0.17398103 -0.34754252 0.20485398 0.16584347 0.24356999 -0.33676466 0.27601665 -0.10619127 0.19389129 0.30893186 0.010178896 0.24324812 0.053249814 0.088672966 -0.15370433 -0.21278414 0.15019955 -0.12153714 -0.13821906 -0.09491413 0.22904095 -0.11237328 -0.20233545 0.025246607 0.13488841 0.21473862 0.11896821 0.19958691 0.22951417 0.008079487 -0.0793434 0.54776937 0.29413915 -0.034765728 -0.16533777 0.12230738 -0.08472014
金兵 -0.13635635 0.20859131 0.032636423 0.051857032 0.09755701 -0.30100164 0.13770182 0.5309639 -0.23023866 -0.18554752 0.020938203 -0.3529923 -0.008553894 -0.037848443 0.008321905 -0.14950179 0.19101702 -0.2085985 -0.062304106 -0.5791112 0.0050662444 -0.061957672 0.26691166 -0.17835371 0.12525183 -0.059213087 -0.024128877 -0.09296714 -0.2337294 -0.1355985 0.05117003 0.027059251 0.10286487 -0.33137915 -0.13194205 0.079971984 0.14808775 -0.2611289 -0.07765471 -0.43801877 0.19451854 -0.43680435 -0.18449374 0.087805435 0.14830528 -0.10204012 -0.2070638 -0.18978162 0.26444307 0.09619082 0.06245953 -0.25765255 0.07877654 0.041260973 -0.1508032 0.053483352 0.20017262 -0.11584448 -0.119125485 0.2612174 0.111912645 -0.052562237 0.0037310552 -0.1828807 -0.38250983 0.22936657 0.18526459 0.2601902 -0.36779195 0.3142186 -0.11094299 0.20355897 0.33949226 0.014645233 0.26112652 0.05463644 0.086940974 -0.16642897 -0.22922619 0.173895 -0.13686936 -0.14660685 -0.10601712 0.26148522 -0.13326691 -0.22780117 0.0104543185 0.15201473 0.25523752 0.14111784 0.21688107 0.24283357 -0.006948105 -0.085213736 0.5820033 0.32447568 -0.041560143 -0.18219204 0.12621078 -0.09560294
娘子 -0.15084329 0.2064201 0.0346146 0.07545181 0.10791795 -0.33160663 0.15037738 0.58082163 -0.2545331 -0.19883867 0.010346463 -0.3868499 -0.0058736266 -0.035426706 0.02002659 -0.15166056 0.20996626 -0.21786688 -0.0813647 -0.61015195 0.011244589 -0.06523998 0.27617562 -0.18388563 0.14792022 -0.05325222 -0.042572618 -0.09333387 -0.25488043 -0.14046249 0.04838138 0.044810046 0.097409636 -0.3633718 -0.15097974 0.10253483 0.15930651 -0.2909491 -0.095062554 -0.48052192 0.19902103 -0.4615468 -0.19115613 0.09595677 0.15745467 -0.11379659 -0.21935302 -0.20204248 0.27684546 0.1018283 0.08116974 -0.29079375 0.09764513 0.02471388 -0.175701 0.050093092 0.21747789 -0.1168459 -0.1363175 0.29087728 0.11708598 -0.06373 0.0071608573 -0.20459272 -0.41701794 0.26093903 0.18190885 0.29108474 -0.38578838 0.33210546 -0.123624325 0.22185111 0.35858545 0.0019843641 0.2949588 0.055272263 0.097865574 -0.17579915 -0.24179721 0.16887906 -0.1541703 -0.15844864 -0.1081859 0.27372253 -0.14213285 -0.23386791 0.02182988 0.16226545 0.27293846 0.1400761 0.24892487 0.25948837 0.0006228537 -0.08938541 0.63525546 0.35336262 -0.040716898 -0.20542888 0.14785117 -0.11352308
两人 -0.15067296 0.20288281 0.04809539 0.07197217 0.09532736 -0.3085264 0.13652791 0.54524225 -0.2279963 -0.19108327 0.014209407 -0.36687422 -0.003765178 -0.03066077 0.004061795 -0.14309828 0.19609676 -0.22038856 -0.07548861 -0.57897455 0.0016420155 -0.068686076 0.269733 -0.16824469 0.13636681 -0.043305956 -0.03909648 -0.07560495 -0.2397844 -0.14633705 0.042754743 0.03994235 0.09314732 -0.3283031 -0.13604316 0.09420571 0.16685666 -0.28056642 -0.085208975 -0.4557952 0.183435 -0.43483627 -0.1847528 0.08945091 0.15141858 -0.11576944 -0.21691695 -0.18576226 0.27480143 0.098986275 0.06713497 -0.2638737 0.08194107 0.029313875 -0.16273017 0.046474185 0.2086755 -0.11796499 -0.13967746 0.26455224 0.113774695 -0.055824667 0.01800299 -0.17873944 -0.40103027 0.23263635 0.18700247 0.2753528 -0.36446813 0.32711652 -0.10052859 0.2128767 0.34540954 0.01432137 0.28255618 0.06848963 0.087126605 -0.17637408 -0.22477593 0.17090362 -0.14106803 -0.14528722 -0.09779564 0.25290358 -0.13693182 -0.23247787 0.024786673 0.15832512 0.25033954 0.14291763 0.23628604 0.2653887 0.009757228 -0.08827736 0.60737985 0.33699796 -0.043757405 -0.18518251 0.13036902 -0.10082365
笑 -0.12714556 0.17614606 0.02758548 0.050170023 0.08473309 -0.25435263 0.109177 0.45485264 -0.19874655 -0.16016333 0.013857366 -0.29728004 0.0019110705 -0.03691989 0.01024133 -0.120289356 0.16952942 -0.18406828 -0.054456368 -0.4937673 0.000925246 -0.05091976 0.2211625 -0.14683062 0.1055972 -0.038706347 -0.035395835 -0.068920635 -0.19039696 -0.1149095 0.04220199 0.03875416 0.07020137 -0.28883603 -0.10704073 0.08519849 0.12457482 -0.2335836 -0.06984569 -0.38128576 0.16233099 -0.35426402 -0.16079174 0.07020998 0.13707358 -0.09156065 -0.17982224 -0.15715325 0.21283107 0.07049352 0.054807182 -0.2218214 0.07076542 0.035684053 -0.12538616 0.04254525 0.15833831 -0.08844831 -0.11369215 0.23233476 0.091677934 -0.048107293 0.018125875 -0.15729289 -0.33177182 0.19587852 0.157339 0.23214692 -0.30502853 0.26738465 -0.09378014 0.18737195 0.2779728 0.0047368873 0.22022688 0.05888729 0.07640801 -0.14357242 -0.18171348 0.12984122 -0.12158433 -0.12457723 -0.093133636 0.22482511 -0.109899595 -0.19087319 0.021111298 0.13679802 0.21134557 0.12382527 0.18144384 0.20761724 0.011354028 -0.069887616 0.50391746 0.26811907 -0.03127875 -0.15337741 0.12476973 -0.085275635
只见 -0.13312665 0.19842653 0.034296848 0.06066655 0.10266333 -0.30868238 0.14984767 0.53560865 -0.23895381 -0.1738645 0.018626375 -0.36330914 -0.008789532 -0.03979142 0.009270138 -0.13400371 0.19879134 -0.21400101 -0.0763158 -0.58683825 0.0006362792 -0.05509858 0.26126552 -0.17984624 0.12776197 -0.043577928 -0.02542463 -0.08540825 -0.23118909 -0.14289322 0.060446464 0.03434888 0.10167517 -0.33989176 -0.12730531 0.10126208 0.16791394 -0.2728783 -0.0846952 -0.46108773 0.20188244 -0.44770277 -0.19481157 0.09726275 0.15099196 -0.10079563 -0.22262473 -0.17746583 0.26972836 0.08330657 0.07475481 -0.27300853 0.09152811 0.0404626 -0.16781309 0.05868585 0.21258612 -0.10331107 -0.13984653 0.26282564 0.09716928 -0.0526727 0.0073791137 -0.18267033 -0.3907336 0.24661088 0.18144064 0.2694452 -0.36786112 0.32193264 -0.11892601 0.20985296 0.3446937 0.013917988 0.2735246 0.049806457 0.095434636 -0.16415934 -0.22388923 0.17335856 -0.14585415 -0.15592606 -0.10681705 0.25446916 -0.14389731 -0.22506134 0.01860946 0.16111092 0.256605 0.15001447 0.22284932 0.26684248 8.154768e-06 -0.09144062 0.6024541 0.32644188 -0.046836447 -0.19334263 0.14949977 -0.09822727
那道人 -0.122729436 0.17397541 0.04261289 0.047585413 0.08895683 -0.2548938 0.12501292 0.4550462 -0.20461424 -0.14655143 0.008658499 -0.3107799 -0.0027780652 -0.037693404 0.015727686 -0.12806663 0.16586636 -0.17715235 -0.06590431 -0.4949247 0.016312055 -0.051557854 0.21781902 -0.14752722 0.10436545 -0.047939297 -0.021144155 -0.067178726 -0.2037486 -0.11645534 0.04867486 0.025213262 0.07698493 -0.28621745 -0.12239494 0.0786626 0.14259753 -0.22672792 -0.066940986 -0.38063696 0.16143866 -0.37688568 -0.15821382 0.08460106 0.13223173 -0.09200732 -0.17186552 -0.15355666 0.21892221 0.08413056 0.07004568 -0.23486525 0.079350516 0.02092917 -0.13561076 0.049390115 0.16724093 -0.10040124 -0.11786019 0.21744317 0.08289688 -0.038366314 0.013693333 -0.16686168 -0.32444167 0.20649646 0.15884286 0.23886245 -0.31968993 0.26580048 -0.09028914 0.183838 0.29571828 0.000114926304 0.23539573 0.059891682 0.07227632 -0.13588212 -0.18969283 0.13800222 -0.12168352 -0.13760293 -0.09506146 0.2243792 -0.11713154 -0.1796487 0.007079812 0.12319014 0.21917263 0.12687834 0.19685479 0.2237745 0.010803826 -0.08354686 0.5204574 0.26998416 -0.040128566 -0.16414222 0.12531978 -0.09076351
但 -0.14516497 0.21115069 0.042090554 0.0590484 0.09822349 -0.32267562 0.15001379 0.56777245 -0.24308287 -0.18771148 0.0071540144 -0.3631181 -0.005641702 -0.044564735 0.008436786 -0.14117987 0.20511112 -0.22546428 -0.084671095 -0.61471426 0.0071057375 -0.056344844 0.27404675 -0.18172115 0.13994119 -0.05076266 -0.041025985 -0.08045346 -0.24797553 -0.14058548 0.04348405 0.0444605 0.09237878 -0.3531461 -0.14270976 0.0924653 0.16688678 -0.2828133 -0.08260786 -0.47215587 0.1953337 -0.46283904 -0.18804298 0.09982936 0.16895865 -0.10804881 -0.22758746 -0.18553396 0.27111435 0.09877702 0.070714 -0.2782915 0.09231029 0.032414157 -0.17009518 0.052435666 0.2150731 -0.10838579 -0.14440669 0.28512278 0.10621162 -0.06820277 0.0075158635 -0.19285557 -0.40274394 0.25579175 0.19521053 0.28873116 -0.3880623 0.32921484 -0.104960345 0.23108643 0.36540368 0.016078196 0.28618705 0.06490225 0.09135715 -0.17076367 -0.23037456 0.1690134 -0.1457608 -0.1499995 -0.105019 0.27827874 -0.13291758 -0.23432665 0.027063137 0.16816261 0.26129135 0.14726403 0.24849744 0.27332112 -0.0032290516 -0.0990161 0.62806547 0.3459707 -0.045888394 -0.20319653 0.1484113 -0.09724721
下 -0.10480542 0.15786412 0.032522865 0.055316098 0.08405505 -0.22632758 0.105457254 0.41134557 -0.1810324 -0.12836707 0.005117983 -0.25880745 -0.012621104 -0.029755583 0.016458698 -0.11178969 0.14654283 -0.15323451 -0.04517015 -0.43884474 0.00089929334 -0.036881205 0.19300693 -0.13022326 0.107425325 -0.047544844 -0.028999558 -0.07217694 -0.1764186 -0.10036714 0.03002705 0.025065498 0.08045743 -0.25667757 -0.09875004 0.07236817 0.11727845 -0.20952167 -0.053904463 -0.34095308 0.15277342 -0.3315204 -0.137752 0.07461087 0.115862824 -0.07715445 -0.1664353 -0.13135216 0.1986061 0.06465247 0.058752522 -0.19116724 0.057919323 0.026007619 -0.11503909 0.036848255 0.1555474 -0.07345389 -0.09161143 0.19569857 0.07579093 -0.03352766 0.008804441 -0.15021168 -0.29757285 0.17143507 0.1354344 0.20455928 -0.28143808 0.23440686 -0.07330774 0.16636984 0.2611654 0.00863337 0.21316186 0.039168768 0.07784293 -0.12917098 -0.17968902 0.11750578 -0.10861498 -0.106430285 -0.07557338 0.18646932 -0.09949521 -0.17185275 0.008825085 0.1247553 0.19588706 0.106481425 0.17411827 0.19362816 -0.007753015 -0.0658896 0.46253398 0.25137442 -0.031098047 -0.14368482 0.107653216 -0.08434766
一 -0.16022219 0.23897976 0.047649693 0.07178431 0.118297115 -0.35116142 0.16732693 0.6382706 -0.26296002 -0.2089786 0.01088683 -0.41980407 -0.015506874 -0.045183253 0.015697934 -0.15820384 0.22972889 -0.24974999 -0.0806853 -0.67980254 0.011190743 -0.062087987 0.3208208 -0.20329197 0.14984813 -0.056939617 -0.026440177 -0.08998629 -0.27438137 -0.15416856 0.06771546 0.033822082 0.12069974 -0.38893878 -0.1620751 0.11024243 0.19488847 -0.32157698 -0.08938341 -0.5277044 0.21488065 -0.5019921 -0.22167356 0.11098549 0.18518308 -0.11632898 -0.24137415 -0.22475442 0.3125941 0.09736793 0.08154039 -0.29965958 0.09288786 0.043025445 -0.18991579 0.052876677 0.24556808 -0.1238978 -0.14494786 0.3142162 0.12381067 -0.06283282 0.0058024228 -0.20886384 -0.46108606 0.2793115 0.20150287 0.31483275 -0.42300203 0.3655949 -0.13395672 0.24344146 0.38896075 0.019882903 0.31175268 0.06810941 0.10190913 -0.20233664 -0.2705896 0.19869064 -0.15741894 -0.17326415 -0.11108796 0.30342963 -0.14573467 -0.25132006 0.023707924 0.18206052 0.28505594 0.1608969 0.27056125 0.28806278 0.006508975 -0.113690324 0.7102512 0.3806889 -0.050076526 -0.22043315 0.16839935 -0.12581678
还 -0.15719856 0.22234228 0.039387606 0.06517227 0.11085591 -0.31652227 0.1563492 0.57997715 -0.23707421 -0.19999006 0.017435044 -0.36723748 -0.01055873 -0.03633161 0.0070083844 -0.15460768 0.21688744 -0.22265476 -0.07205086 -0.6200995 0.01635069 -0.068901315 0.2795107 -0.18173383 0.15135336 -0.061562475 -0.029223224 -0.0911526 -0.25447497 -0.15109427 0.044833187 0.045589257 0.098511755 -0.36005014 -0.14152837 0.101282135 0.17852286 -0.29628253 -0.08746112 -0.47547293 0.20058317 -0.46289563 -0.18921861 0.09485347 0.1713739 -0.114039995 -0.22597843 -0.18997157 0.28872204 0.096264094 0.07401176 -0.27513 0.08582162 0.03968267 -0.1676834 0.049192432 0.22204922 -0.11991151 -0.13542545 0.276789 0.114836946 -0.054973766 0.018428791 -0.20367017 -0.42113188 0.2564125 0.19225997 0.28626955 -0.39417613 0.33362657 -0.1250086 0.22767577 0.3578889 0.010704947 0.29215834 0.06489762 0.09341738 -0.17972256 -0.2476589 0.17376581 -0.14628899 -0.15310043 -0.116290875 0.276389 -0.13336939 -0.22613399 0.025975667 0.15536766 0.27014434 0.15696593 0.24485855 0.27190074 0.0016996105 -0.09338764 0.64084905 0.35518318 -0.050493594 -0.20534563 0.1547158 -0.11469457
吗 -0.11087955 0.15952414 0.029766645 0.04406556 0.078017965 -0.24450152 0.111632094 0.4151512 -0.18453468 -0.1368115 0.011100553 -0.2719902 -0.0029715255 -0.037908144 0.018675907 -0.114611335 0.15076639 -0.15492842 -0.05552259 -0.4474042 0.010285616 -0.045833103 0.21527424 -0.12344366 0.10211045 -0.0433328 -0.020172987 -0.0743622 -0.17248683 -0.104037456 0.045120955 0.0322309 0.07226549 -0.25976655 -0.10742508 0.08035175 0.127528 -0.20549203 -0.06905123 -0.35537848 0.15781778 -0.33556846 -0.14838742 0.062451318 0.115009315 -0.08290173 -0.17371471 -0.14375359 0.20915923 0.06001325 0.05494747 -0.21297002 0.06157577 0.024081517 -0.13313884 0.03736647 0.14992484 -0.09257743 -0.09870935 0.21009153 0.091145866 -0.034960523 0.003903437 -0.15201065 -0.29649383 0.18817598 0.14524642 0.20706134 -0.2904438 0.2408772 -0.092839934 0.17202027 0.26183525 0.01571972 0.20418479 0.056423143 0.069879726 -0.12309306 -0.18122949 0.12219597 -0.10214123 -0.12884977 -0.08877884 0.20618919 -0.11313558 -0.16730392 0.018630212 0.11293035 0.1978206 0.11010113 0.18433768 0.19917698 -0.0042080935 -0.07279099 0.47427687 0.24552354 -0.023211053 -0.14886026 0.10352002 -0.083335236
道长 -0.111395136 0.15422192 0.036325336 0.04560366 0.09030011 -0.24937966 0.107154414 0.43994537 -0.17630008 -0.1434247 0.0075755254 -0.2842365 -0.012903126 -0.033813648 0.003736793 -0.11393957 0.15308379 -0.1766489 -0.0657071 -0.46351555 0.011515877 -0.04153674 0.21940525 -0.1333807 0.11144506 -0.03791174 -0.030144235 -0.06648369 -0.18810974 -0.10672948 0.033923607 0.030317837 0.08066154 -0.27532852 -0.116563566 0.07962325 0.12799339 -0.21856818 -0.07353533 -0.35227758 0.15636855 -0.35089722 -0.15084538 0.07459836 0.12972647 -0.09694484 -0.16874935 -0.15583336 0.22470732 0.07776178 0.0521214 -0.21579924 0.06270921 0.035776284 -0.11946143 0.04453658 0.17403291 -0.092559636 -0.1022793 0.21149312 0.076217115 -0.051091 0.009630361 -0.15539825 -0.3216025 0.1908615 0.1436208 0.2101918 -0.2902227 0.2567039 -0.09756132 0.17151868 0.26941225 0.015449324 0.2172608 0.05685945 0.082089625 -0.14089076 -0.19273621 0.12948297 -0.10574339 -0.12459476 -0.084168285 0.20942716 -0.11685381 -0.17575145 0.0068239355 0.13452141 0.19543654 0.12185212 0.18123347 0.20380192 -0.0007807252 -0.073183864 0.4896796 0.26540533 -0.035431415 -0.1432994 0.10657157 -0.09107006
从 -0.13680951 0.19322027 0.03591542 0.052258052 0.096163586 -0.28721932 0.13449572 0.5063088 -0.20308106 -0.16878042 0.013802804 -0.32190332 0.0049047726 -0.035846222 0.009931667 -0.1350773 0.17741911 -0.1926211 -0.06442698 -0.53851056 0.01358629 -0.061211493 0.24214596 -0.16944842 0.1297489 -0.043538578 -0.030649178 -0.068968244 -0.21223691 -0.13789606 0.037889484 0.030349018 0.080702856 -0.2990358 -0.11901038 0.08596104 0.1459287 -0.2559823 -0.0701686 -0.4166042 0.17297678 -0.40555847 -0.1730454 0.073892735 0.14357065 -0.10680939 -0.18840818 -0.17785677 0.2373842 0.083716646 0.056356587 -0.23875545 0.07285843 0.030812094 -0.13751496 0.050904572 0.1876832 -0.09248461 -0.12076336 0.25111198 0.1027678 -0.06143643 0.013184518 -0.1800069 -0.36182332 0.22549617 0.1604886 0.24207076 -0.333965 0.29760835 -0.0931481 0.18964036 0.32158527 0.016097272 0.2439804 0.05302907 0.087259926 -0.1653706 -0.2124241 0.16447133 -0.13133496 -0.1465963 -0.099500366 0.22809154 -0.1209815 -0.19753489 0.017642293 0.1387974 0.24016142 0.119059324 0.20413928 0.22409655 0.012696735 -0.085547544 0.54805803 0.2929363 -0.032407794 -0.17360286 0.12206069 -0.08952987
和 -0.12447924 0.17772473 0.040175073 0.047783874 0.07924934 -0.25137317 0.108414136 0.45380566 -0.18654022 -0.1442747 0.00063026807 -0.29583594 -0.010589427 -0.023553152 0.018003736 -0.11891333 0.15546912 -0.16981496 -0.060347665 -0.48018092 0.002329679 -0.0519062 0.22119382 -0.13775955 0.10328975 -0.04710001 -0.02746179 -0.073362865 -0.18842608 -0.1158117 0.0397166 0.02232672 0.069950305 -0.27636796 -0.11283482 0.0666572 0.13953859 -0.2170633 -0.062494196 -0.37535998 0.15829015 -0.35421583 -0.16170885 0.06851212 0.11912389 -0.08547029 -0.18613097 -0.15280907 0.22839282 0.0773975 0.04869803 -0.21299225 0.07487268 0.019500984 -0.12558572 0.051861666 0.17506264 -0.09595586 -0.10304485 0.21753953 0.080114976 -0.04449557 0.00510806 -0.15562795 -0.3315963 0.18894356 0.14651789 0.22508061 -0.30400732 0.27080908 -0.08677915 0.16839029 0.2754436 0.005138537 0.22388688 0.042472627 0.08795717 -0.13741185 -0.19780666 0.14589597 -0.117872834 -0.13371834 -0.08603685 0.22233869 -0.1161863 -0.18883808 0.012665778 0.13356067 0.21330442 0.108708024 0.18004683 0.2112878 0.005704235 -0.07244708 0.503774 0.2715512 -0.03817391 -0.1505931 0.11513863 -0.07912726
自己 -0.1199035 0.18257917 0.031332005 0.055710036 0.088452 -0.266091 0.13130607 0.467273 -0.19048288 -0.15614367 0.020298358 -0.30074582 -0.0056437966 -0.026514616 0.013800244 -0.11376536 0.16977441 -0.17811869 -0.06488691 -0.50153404 -0.0009266724 -0.054721743 0.22678679 -0.14755723 0.11413252 -0.043253418 -0.021134263 -0.07849596 -0.19227062 -0.11206697 0.049124405 0.034101382 0.0812561 -0.28369838 -0.12335808 0.072491355 0.13907836 -0.23110932 -0.06654187 -0.38796842 0.16881855 -0.37662956 -0.15301321 0.07420306 0.12635037 -0.09045571 -0.1833246 -0.16107169 0.22327751 0.08533543 0.05094798 -0.22245322 0.06940755 0.038390797 -0.13107438 0.046527747 0.1722503 -0.09479386 -0.117532566 0.22637585 0.09684698 -0.059079934 0.013487821 -0.1549125 -0.32767645 0.19758083 0.15737918 0.22043462 -0.31307504 0.2785533 -0.08878676 0.17797558 0.29028556 -0.00035495282 0.23245257 0.055314388 0.07435749 -0.13997005 -0.19976352 0.1494871 -0.113640755 -0.12758501 -0.08959613 0.21153818 -0.120369166 -0.18988559 0.0051705767 0.14140815 0.21818782 0.119056456 0.20365605 0.21437885 0.0043331445 -0.076942824 0.5223844 0.28269723 -0.041403107 -0.16189608 0.11154727 -0.081538305
再 -0.1361721 0.21104552 0.04759839 0.052929536 0.10937971 -0.31399485 0.14392695 0.5434404 -0.22301891 -0.19024824 0.0149786435 -0.3638618 -0.004947561 -0.028277524 0.0005926061 -0.13315187 0.18832785 -0.20486756 -0.08154567 -0.5905763 0.002597899 -0.055317666 0.2676238 -0.17361966 0.1249214 -0.042600848 -0.0285687 -0.089477085 -0.23871079 -0.13113648 0.054001503 0.027625974 0.10012255 -0.3416601 -0.13387562 0.101030625 0.15915528 -0.27044025 -0.076896414 -0.45645326 0.19557656 -0.43401432 -0.19754624 0.08809931 0.16185638 -0.106341235 -0.203922 -0.1874625 0.2756855 0.08365664 0.07570817 -0.27596128 0.08690122 0.041611098 -0.16098957 0.060039625 0.19569804 -0.11084582 -0.1283367 0.26333973 0.11331988 -0.06506508 0.011284024 -0.17685257 -0.3863651 0.23861876 0.1881768 0.26098976 -0.37212196 0.32086155 -0.112179205 0.22053291 0.35234308 0.004980309 0.27078828 0.06976009 0.08913228 -0.17951812 -0.22983065 0.16090679 -0.14004587 -0.15055965 -0.112612076 0.2597503 -0.13949417 -0.22600712 0.020479456 0.1599071 0.2503107 0.14923176 0.22944407 0.2634491 0.006540835 -0.08668576 0.6148535 0.32471693 -0.04454183 -0.19015329 0.14444856 -0.10939609
过 -0.11963905 0.17679742 0.031152558 0.05523423 0.082976535 -0.25130898 0.11856472 0.44154352 -0.18120429 -0.14319782 0.0004213548 -0.30405062 -0.0016689613 -0.029537516 0.004960073 -0.10965572 0.15463607 -0.1778265 -0.05263633 -0.48445675 0.002695867 -0.04272718 0.23031367 -0.14993581 0.10414769 -0.04472961 -0.017524399 -0.07256627 -0.1894413 -0.11768321 0.04600073 0.029747507 0.08650927 -0.26839805 -0.121427074 0.08228983 0.12587327 -0.23402044 -0.0631694 -0.37115183 0.16473804 -0.37321407 -0.14695114 0.06706176 0.12061886 -0.08808603 -0.18127109 -0.15179108 0.21609548 0.069246836 0.06475722 -0.2234244 0.07663762 0.025330951 -0.13279699 0.04737498 0.17768894 -0.09267111 -0.11980434 0.22035445 0.09519654 -0.04110958 0.0037083428 -0.15117717 -0.31695798 0.1886251 0.14811748 0.22515443 -0.31178287 0.25781026 -0.08528941 0.17376783 0.28035545 0.00967315 0.23596078 0.056417264 0.07377993 -0.144288 -0.18113162 0.14076681 -0.121473625 -0.1348349 -0.09196417 0.22114916 -0.10930629 -0.1917058 0.021067435 0.1269018 0.20897256 0.1124402 0.193373 0.21304452 0.0049841627 -0.0798849 0.49877983 0.2723531 -0.041196425 -0.15541759 0.12413941 -0.08243088
这时 -0.08203658 0.12965508 0.02734951 0.039221685 0.07070183 -0.18407379 0.081005685 0.3431953 -0.14718716 -0.11329581 -0.0017456715 -0.23064439 -0.006552738 -0.01687287 0.007760724 -0.0894733 0.116380185 -0.12488826 -0.03727076 -0.3534653 0.0057604546 -0.046734497 0.17462058 -0.11088277 0.08563353 -0.028026683 -0.009937318 -0.052875455 -0.14988668 -0.08736605 0.03453211 0.02292623 0.058048297 -0.19730952 -0.08168391 0.05147746 0.1091691 -0.17449285 -0.054611444 -0.27244145 0.11229134 -0.26351896 -0.122254424 0.046833895 0.08555012 -0.06484295 -0.12647918 -0.10752159 0.16765226 0.061390456 0.04326367 -0.1720767 0.062052432 0.014324675 -0.09089736 0.03136362 0.12605356 -0.07018379 -0.07396566 0.15937723 0.06708333 -0.035693567 0.008963635 -0.12200113 -0.25287896 0.13766912 0.10619212 0.16683373 -0.23460002 0.20519722 -0.06471419 0.12596963 0.20782965 -0.00066055066 0.16010205 0.03677482 0.05857295 -0.09625432 -0.13809161 0.10365743 -0.07795412 -0.099819064 -0.07330698 0.16237983 -0.089614585 -0.14154968 0.01302448 0.08832403 0.15426254 0.090008855 0.14319877 0.15768212 0.0011105819 -0.04705967 0.37715152 0.2011809 -0.03333609 -0.12172884 0.08478685 -0.066713884
吃 -0.12330976 0.16247259 0.02775838 0.045911413 0.077958114 -0.24506372 0.122018084 0.43757156 -0.17446326 -0.1391155 0.013649439 -0.28376538 0.001013959 -0.028895484 0.016415928 -0.12206456 0.15950723 -0.16568165 -0.04891068 -0.4713773 0.01744346 -0.04417361 0.20963095 -0.13176244 0.10347223 -0.034831434 -0.034056667 -0.07162704 -0.18181926 -0.11202793 0.033138037 0.02859196 0.06858925 -0.2626209 -0.100191735 0.07120656 0.13465585 -0.21939272 -0.06223889 -0.35812992 0.14366499 -0.34848684 -0.15517029 0.07978359 0.116188 -0.07812736 -0.17033505 -0.14119925 0.21859539 0.08304597 0.057064436 -0.21225907 0.06913578 0.025092062 -0.12958886 0.0461933 0.17287727 -0.08031299 -0.10339929 0.21857679 0.08322486 -0.044036824 0.005372335 -0.15585615 -0.32226586 0.19417657 0.13641208 0.22498488 -0.30107898 0.25294182 -0.09434824 0.17968135 0.28066477 0.008862964 0.21697107 0.041946232 0.07021612 -0.12659577 -0.19251256 0.13985543 -0.10886716 -0.11208175 -0.0810027 0.21040067 -0.10278239 -0.17431244 0.0044757887 0.11950515 0.20172364 0.1133195 0.18745382 0.20239015 0.0011947025 -0.06903691 0.48730758 0.27142897 -0.02598721 -0.14704596 0.113558374 -0.09166313
请 -0.13286261 0.19500306 0.042499263 0.06183596 0.106698774 -0.2894056 0.1490937 0.52922827 -0.22952162 -0.1813401 0.0032576811 -0.34401864 0.0027844552 -0.027660953 0.0072361487 -0.1388902 0.18450621 -0.19677927 -0.06387333 -0.56454164 0.01904984 -0.069444135 0.2524534 -0.16010179 0.13607685 -0.060956035 -0.022344388 -0.087900236 -0.2264238 -0.13190745 0.039350864 0.043116424 0.087302804 -0.33220538 -0.12416144 0.095730215 0.16278036 -0.2594154 -0.07852456 -0.4451321 0.1854659 -0.4263427 -0.1781311 0.09718835 0.15668224 -0.10695853 -0.21264865 -0.17373903 0.26793012 0.08233905 0.07195873 -0.25214103 0.08217918 0.035925433 -0.16102435 0.041350845 0.19213247 -0.11439458 -0.13488482 0.26579252 0.09761272 -0.04944298 0.0126842465 -0.18285657 -0.39132345 0.22413924 0.17727004 0.2726071 -0.36023095 0.3149348 -0.10986987 0.21837112 0.3326716 0.0021586174 0.26855084 0.057053532 0.10097135 -0.17475347 -0.22003728 0.16745079 -0.12829539 -0.1504265 -0.104546435 0.24348074 -0.12486528 -0.2251558 0.024633491 0.15805249 0.25116107 0.14387259 0.2156596 0.25724387 -0.004562329 -0.080599144 0.5832092 0.31928563 -0.043891355 -0.18065073 0.1439111 -0.09831738
心中 -0.11605197 0.15959477 0.035002902 0.041357774 0.08176606 -0.23193131 0.11402599 0.4084605 -0.1683613 -0.13166627 0.0061454414 -0.27980292 -0.004665798 -0.02383875 -0.0002840142 -0.116415374 0.14996803 -0.15886131 -0.06018235 -0.44727322 0.0164903 -0.036995545 0.19606093 -0.13991345 0.10231476 -0.04319772 -0.024466822 -0.07015036 -0.18528987 -0.11003429 0.042489216 0.032471836 0.06433097 -0.26286298 -0.10903118 0.072224595 0.1129082 -0.2042962 -0.054328732 -0.3497249 0.14162497 -0.3217105 -0.13479917 0.06892862 0.111858465 -0.09109207 -0.16628644 -0.14001058 0.20941526 0.067326725 0.062964536 -0.21017532 0.0690082 0.03097671 -0.12490171 0.04723367 0.14848182 -0.07908353 -0.10963754 0.20218588 0.078009106 -0.037122916 0.013520091 -0.15071926 -0.3011418 0.17338932 0.12777357 0.20657463 -0.27223977 0.23420186 -0.073367245 0.16590963 0.25309947 0.0061975764 0.20919982 0.051243395 0.07250068 -0.11940001 -0.1784615 0.11896301 -0.1148515 -0.11036069 -0.084286824 0.18813914 -0.10802975 -0.16820672 0.02304911 0.114782885 0.1945269 0.10620362 0.18298241 0.19854194 -0.005258418 -0.0789279 0.4540917 0.25155872 -0.028483659 -0.13338827 0.10994894 -0.06923289
皇帝 -0.08134089 0.12395727 0.030214591 0.039932694 0.06264882 -0.19112195 0.078425676 0.32177034 -0.14594556 -0.0992328 -0.0009728712 -0.22496733 -0.0010423706 -0.01489437 0.013294188 -0.09057676 0.12628843 -0.12635554 -0.047312316 -0.35684136 0.0020172228 -0.04608035 0.1640037 -0.09968243 0.07753455 -0.029720634 -0.012902644 -0.04411947 -0.14800064 -0.08101577 0.02869152 0.027206575 0.05516004 -0.21052702 -0.08121897 0.044573534 0.10573166 -0.17261606 -0.050355118 -0.26428 0.11139095 -0.27495137 -0.117057264 0.047294933 0.09977959 -0.07331629 -0.13390313 -0.122174144 0.17045228 0.050721128 0.03626936 -0.16004203 0.05275737 0.028354008 -0.099011496 0.025109816 0.118761644 -0.07501281 -0.06841313 0.17136475 0.06758923 -0.042917587 0.0050780247 -0.10788829 -0.2428663 0.15129505 0.11523922 0.16149609 -0.22917108 0.20059247 -0.06658772 0.12542525 0.2114392 -0.0010946244 0.15568355 0.0433285 0.058090113 -0.10019694 -0.12792738 0.09764606 -0.089342676 -0.10179933 -0.05427571 0.15223576 -0.07485517 -0.1334409 0.0023393442 0.094493024 0.16171287 0.08014973 0.13801841 0.15250456 0.008463024 -0.059691932 0.3606146 0.18979625 -0.029957851 -0.10811474 0.08336093 -0.062204823
小人 -0.114338845 0.18575867 0.04244465 0.061409295 0.09217247 -0.26842377 0.12508638 0.479386 -0.2087541 -0.15586667 0.00583218 -0.30213028 0.0012023955 -0.03633005 0.011362961 -0.129401 0.16219214 -0.18417498 -0.062436488 -0.5161187 0.010706442 -0.051669076 0.22639365 -0.15427232 0.114852816 -0.04106335 -0.021976614 -0.06820016 -0.20318171 -0.12912984 0.044705436 0.042556208 0.09390523 -0.28759494 -0.11476519 0.08597113 0.13449773 -0.2408058 -0.07288765 -0.39740452 0.17352471 -0.37380674 -0.16383317 0.07079982 0.13009699 -0.10267385 -0.19445014 -0.15982863 0.2352455 0.074620046 0.053707063 -0.23248042 0.07459652 0.029215997 -0.13025448 0.04418406 0.16817129 -0.08974589 -0.10731979 0.2276633 0.10056374 -0.044903852 0.008237467 -0.16367881 -0.33673912 0.21452929 0.16464663 0.22946417 -0.32128683 0.27162427 -0.104972266 0.18388332 0.2966932 0.0015236259 0.24129622 0.04806302 0.08392778 -0.1512709 -0.19747883 0.15204848 -0.112325944 -0.12925448 -0.09538289 0.23295122 -0.111918986 -0.19356175 0.02678218 0.13147204 0.22488512 0.11518119 0.20414527 0.2315395 -0.005980007 -0.07659699 0.5318943 0.28037888 -0.045458198 -0.16722654 0.1258262 -0.088252634
